svm_type c_svc
kernel_type rbf
gamma 50
nr_class 2
total_sv 232
rho 3.51881
label 1 -1
nr_sv 56 176
SV
0.547852239216247 1:0.05037783 2:0.01595298 3:0.05961377 4:0.07892527 5:0.04534005 6:0.07304786 7:0.01847187 8:0.06549118 9:0.0302267 10:0.08648195 11:0.00503778 12:0.0713686 13:0.05121746 14:0.03358522 15:0.06633081 16:0.0604534 17:0.06297229 18:0.06801008 19:0.01511335 20:0.04198153 21:0.00504202 22:0.00336134 23:0 24:0.00588235 25:0 26:0.00084034 27:0 28:0.00420168 29:0.00336134 30:0.00168067 31:0.00084034 32:0.00168067 33:0.00672269 34:0.00336134 35:0 36:0.01092437 37:0 38:0.00084034 39:0.00084034 40:0.00084034 41:0.00420168 42:0.00084034 43:0.00084034 44:0.00084034 45:0.00672269 46:0.00336134 47:0.00084034 48:0.00756303 49:0 50:0.00420168 51:0 52:0.00588235 53:0.00504202 54:0.00084034 55:0.00168067 56:0.00336134 57:0.00168067 58:0.00084034 59:0.00420168 60:0.00084034 61:0.00084034 62:0.00252101 63:0 64:0.00588235 65:0.00084034 66:0 67:0 68:0.00252101 69:0.00840336 70:0.00336134 71:0.00084034 72:0.00504202 73:0.00084034 74:0.00588235 75:0 76:0.00336134 77:0.00168067 78:0.00084034 79:0.00336134 80:0.00168067 81:0 82:0 83:0.00336134 84:0.00084034 85:0.00672269 86:0 87:0.00168067 88:0.00420168 89:0.00420168 90:0.00252101 91:0.00336134 92:0.00252101 93:0 94:0.00420168 95:0 96:0.00252101 97:0 98:0.00672269 99:0 100:0.00756303 101:0 102:0 103:0 104:0.00588235 105:0.00084034 106:0.00168067 107:0 108:0.00252101 109:0.00084034 110:0.00084034 111:0.00252101 112:0.00504202 113:0.00336134 114:0.00756303 115:0.00336134 116:0.00672269 117:0.00168067 118:0.00168067 119:0.00504202 120:0.00672269 121:0.00084034 122:0.00168067 123:0 124:0.00420168 125:0.00168067 126:0.00672269 127:0.00084034 128:0.00168067 129:0.00084034 130:0.00336134 131:0.00336134 132:0.00336134 133:0.00168067 134:0.00084034 135:0.00168067 136:0.00420168 137:0.00168067 138:0.00084034 139:0 140:0.00084034 141:0 142:0.00504202 143:0.00420168 144:0.00252101 145:0.00420168 146:0.00168067 147:0.00336134 148:0.00504202 149:0.00084034 150:0.00504202 151:0.00084034 152:0.00084034 153:0 154:0 155:0.00504202 156:0.00252101 157:0.00168067 158:0 159:0.00252101 160:0.00252101 161:0.00336134 162:0.00336134 163:0 164:0.00420168 165:0.00084034 166:0 167:0.00840336 168:0 169:0 170:0.00084034 171:0.00504202 172:0.00084034 173:0 174:0.00756303 175:0.00084034 176:0 177:0.00084034 178:0 179:0.00084034 180:0.00084034 181:0.00504202 182:0.00168067 183:0.00504202 184:0.00252101 185:0.00336134 186:0.00084034 187:0.00168067 188:0.00084034 189:0.00504202 190:0.00084034 191:0.00168067 192:0.00252101 193:0.00084034 194:0.00252101 195:0.00420168 196:0.00252101 197:0.00504202 198:0.00588235 199:0.00504202 200:0 201:0 202:0.00588235 203:0.00252101 204:0.00252101 205:0.00252101 206:0 207:0.00084034 208:0.00252101 209:0.00672269 210:0.00084034 211:0.00588235 212:0.00336134 213:0.00252101 214:0.00840336 215:0.00252101 216:0 217:0.00504202 218:0.00084034 219:0.00084034 220:0.00084034 221:0.00168067 222:0.00336134 223:0.00168067 224:0.00084034 225:0.00084034 226:0.00336134 227:0.00168067 228:0 229:0.00588235 230:0.00504202 231:0.00336134 232:0.00252101 233:0 234:0.00084034 235:0.00336134 236:0.00336134 237:0.00084034 238:0.00168067 239:0.00252101 240:0.00252101 241:0 242:0.00420168 243:0.00588235 244:0 245:0.00168067 246:0.00168067 247:0.00420168 248:0.00084034 249:0.00672269 250:0.00084034 251:0.00672269 252:0.00084034 253:0.00672269 254:0.00252101 255:0.00084034 256:0.00168067 257:0.00168067 258:0.00252101 259:0.00756303 260:0.00420168 261:0.00420168 262:0.00084034 263:0.00588235 264:0.00336134 265:0.00252101 266:0.00252101 267:0.00084034 268:0 269:0.00084034 270:0.00840336 271:0.00672269 272:0.00084034 273:0.00252101 274:0.00084034 275:0 276:0.00252101 277:0.00252101 278:0.00336134 279:0.00168067 280:0.00504202 281:0.00588235 282:0.00168067 283:0.00420168 284:0.00252101 285:0.00252101 286:0 287:0.00588235 288:0.00252101 289:0 290:0.00084034 291:0.00252101 292:0.00336134 293:0 294:0.00168067 295:0.00252101 296:0.00336134 297:0.00504202 298:0.00588235 299:0.00252101 300:0.00084034 301:0.00672269 302:0.00420168 303:0.00168067 304:0.00672269 305:0.00336134 306:0.00084034 307:0.00336134 308:0.00252101 309:0.00672269 310:0 311:0.00420168 312:0.00084034 313:0.00252101 314:0.00084034 315:0.00420168 316:0.00252101 317:0.00504202 318:0 319:0.00084034 320:0.00252101 321:0.00168067 322:0 323:0 324:0.00420168 325:0.00252101 326:0.00504202 327:0.00336134 328:0.00168067 329:0 330:0.00420168 331:0 332:0.00504202 333:0.00420168 334:0.00336134 335:0 336:0.00084034 337:0 338:0.00084034 339:0.00084034 340:0.00084034 341:0 342:0.00084034 343:0.00084034 344:0.00420168 345:0.00336134 346:0.00420168 347:0.00336134 348:0 349:0.00252101 350:0 351:0 352:0.00252101 353:0.00168067 354:0.00420168 355:0 356:0.00672269 357:0.00084034 358:0.00336134 359:0.00084034 360:0 361:0.00420168 362:0.00084034 363:0.00168067 364:0 365:0.00168067 366:0.00084034 367:0.00504202 368:0.00336134 369:0.00336134 370:0 371:0.00252101 372:0.00252101 373:0 374:0.00252101 375:0.00504202 376:0.00588235 377:0.00168067 378:0.00420168 379:0.00252101 380:0.00420168 381:0.00336134 382:0.00168067 383:0.00168067 384:0 385:0 386:0.00336134 387:0.00504202 388:0.00252101 389:0.00252101 390:0.00168067 391:0.00168067 392:0.00084034 393:0 394:0.00588235 395:0.00420168 396:0 397:0.00252101 398:0.00084034 399:0.00252101 400:0.00084034 401:0.00252101 402:0.00420168 403:0 404:0.00252101 405:0.00840336 406:0.00588235 407:0.00336134 408:0 409:0.00084034 410:0.00084034 411:0.00168067 412:0 413:0.00168067 414:0.00084034 415:0.00252101 416:0.00504202 417:0.00420168 418:0.00840336 419:0 420:0 
1.200449884437353 1:0.06111111 2:0.00277778 3:0.04722222 4:0.05972222 5:0.05138889 6:0.06111111 7:0.02638889 8:0.05833333 9:0.04305556 10:0.08611111 11:0.01527778 12:0.06527778 13:0.04305556 14:0.03888889 15:0.04861111 16:0.08472222 17:0.08055556 18:0.06527778 19:0.01666667 20:0.04444444 21:0.00278164 22:0.00278164 23:0 24:0.00139082 25:0 26:0 27:0.00278164 28:0 29:0 30:0.00278164 31:0.00278164 32:0.00417246 33:0.00417246 34:0 35:0 36:0.00139082 37:0.00139082 38:0 39:0.00139082 40:0 41:0.00278164 42:0.00139082 43:0 44:0 45:0.00417246 46:0.0069541 47:0 48:0.00278164 49:0 50:0.00139082 51:0 52:0.00417246 53:0.00417246 54:0.00278164 55:0.00278164 56:0.00556328 57:0 58:0 59:0.0069541 60:0 61:0 62:0.00278164 63:0 64:0.00834492 65:0 66:0.00139082 67:0 68:0.00139082 69:0.00556328 70:0.00278164 71:0.00278164 72:0.00417246 73:0.00139082 74:0.00417246 75:0 76:0.00278164 77:0 78:0.00139082 79:0.00139082 80:0.00139082 81:0.00139082 82:0 83:0.00417246 84:0.00278164 85:0.0069541 86:0 87:0.00417246 88:0.00139082 89:0.00556328 90:0.00139082 91:0.00278164 92:0.00278164 93:0 94:0.00139082 95:0.00278164 96:0.0069541 97:0.00139082 98:0.00417246 99:0 100:0.00278164 101:0.00139082 102:0.00139082 103:0 104:0.00556328 105:0.00556328 106:0 107:0.00139082 108:0.00278164 109:0.00139082 110:0.00278164 111:0.00278164 112:0.0069541 113:0.00417246 114:0 115:0.00278164 116:0.00417246 117:0.00139082 118:0 119:0.00417246 120:0.00417246 121:0 122:0 123:0.00139082 124:0.0069541 125:0.00139082 126:0.0069541 127:0.00417246 128:0 129:0.00278164 130:0.00556328 131:0.00278164 132:0 133:0.00139082 134:0.00139082 135:0.00278164 136:0.00556328 137:0.00139082 138:0.00139082 139:0 140:0.00139082 141:0.00139082 142:0.00556328 143:0.00278164 144:0.00278164 145:0.01529903 146:0.00139082 147:0.00278164 148:0.00278164 149:0.00556328 150:0.00556328 151:0 152:0 153:0 154:0.00139082 155:0 156:0.00139082 157:0.0069541 158:0 159:0.00278164 160:0.00417246 161:0.00417246 162:0.00278164 163:0.00139082 164:0.00139082 165:0.00417246 166:0 167:0.00556328 168:0 169:0.00139082 170:0.00417246 171:0.00834492 172:0 173:0.00139082 174:0.0069541 175:0 176:0.00139082 177:0 178:0.00139082 179:0 180:0.00278164 181:0.00556328 182:0.00278164 183:0.0069541 184:0.00417246 185:0.00278164 186:0 187:0 188:0 189:0.00139082 190:0 191:0.00278164 192:0.00139082 193:0.00139082 194:0.00139082 195:0.00417246 196:0 197:0.00139082 198:0.00834492 199:0.0069541 200:0.00139082 201:0.00278164 202:0 203:0.00139082 204:0.00139082 205:0.00834492 206:0 207:0.00556328 208:0.00139082 209:0.00834492 210:0.00139082 211:0.00139082 212:0.00417246 213:0.00556328 214:0.00417246 215:0.00417246 216:0 217:0.00139082 218:0 219:0.00139082 220:0 221:0.00556328 222:0.00278164 223:0.00139082 224:0.00278164 225:0 226:0.00417246 227:0 228:0 229:0.00834492 230:0.00278164 231:0.00417246 232:0.00139082 233:0 234:0 235:0.0069541 236:0.00417246 237:0.00278164 238:0.00278164 239:0 240:0.00278164 241:0.00278164 242:0.00139082 243:0.00278164 244:0.00139082 245:0.00417246 246:0 247:0.00139082 248:0.00139082 249:0.00417246 250:0 251:0 252:0.00139082 253:0.0069541 254:0 255:0.00139082 256:0.00278164 257:0.00417246 258:0.0069541 259:0.0069541 260:0 261:0.00556328 262:0.00417246 263:0 264:0 265:0.00278164 266:0 267:0 268:0 269:0 270:0.0069541 271:0.00278164 272:0.00139082 273:0.00278164 274:0.00278164 275:0.00139082 276:0.00278164 277:0.00278164 278:0.00139082 279:0.00278164 280:0.00417246 281:0.00556328 282:0.00139082 283:0.00417246 284:0.00834492 285:0.00139082 286:0 287:0.00417246 288:0.00139082 289:0.00417246 290:0.00139082 291:0 292:0.00278164 293:0.00139082 294:0.00139082 295:0.00139082 296:0.00139082 297:0.00278164 298:0.00278164 299:0.00417246 300:0 301:0.00139082 302:0.00139082 303:0.00139082 304:0.00417246 305:0.00139082 306:0 307:0.00417246 308:0 309:0.00278164 310:0.00139082 311:0.00278164 312:0 313:0.00417246 314:0 315:0.00834492 316:0.00139082 317:0.00278164 318:0 319:0.00139082 320:0.0069541 321:0.00139082 322:0 323:0 324:0.00417246 325:0.00556328 326:0.00417246 327:0 328:0.00139082 329:0.00139082 330:0.00278164 331:0 332:0.00556328 333:0.00556328 334:0.00278164 335:0.00139082 336:0 337:0 338:0 339:0.00139082 340:0 341:0 342:0.00417246 343:0 344:0.0069541 345:0.00834492 346:0.00556328 347:0.0069541 348:0 349:0.00278164 350:0 351:0 352:0.00139082 353:0.00834492 354:0.00139082 355:0.00139082 356:0.00278164 357:0.00417246 358:0.00278164 359:0 360:0.00139082 361:0.00417246 362:0 363:0.00556328 364:0 365:0.00139082 366:0.00278164 367:0.0069541 368:0.00556328 369:0.00834492 370:0 371:0.00278164 372:0.00139082 373:0 374:0.00139082 375:0.0069541 376:0.00556328 377:0.00417246 378:0.0069541 379:0.00139082 380:0.00278164 381:0.00278164 382:0 383:0.00278164 384:0 385:0 386:0 387:0.00556328 388:0.00417246 389:0 390:0.00139082 391:0.00834492 392:0 393:0 394:0.0069541 395:0.00278164 396:0.00139082 397:0 398:0.00278164 399:0.0069541 400:0 401:0.00417246 402:0.00417246 403:0.00139082 404:0.00139082 405:0.00417246 406:0 407:0.00417246 408:0.00139082 409:0.00139082 410:0 411:0.00278164 412:0.00139082 413:0.00139082 414:0.0069541 415:0.00278164 416:0.00417246 417:0.00417246 418:0.00834492 419:0.00417246 420:0 
2.117660744246293 1:0.06692407 2:0.00514801 3:0.05405405 4:0.04375804 5:0.03989704 6:0.06177606 7:0.01544402 8:0.07335907 9:0.05148005 10:0.08365508 11:0.02702703 12:0.06821107 13:0.06563707 14:0.04633205 15:0.03474903 16:0.08880309 17:0.05920206 18:0.04890605 19:0.01029601 20:0.05534106 21:0.00257732 22:0.00257732 23:0 24:0.00773196 25:0 26:0.00257732 27:0 28:0.00386598 29:0.00128866 30:0 31:0 32:0.00128866 33:0.0064433 34:0.0064433 35:0.00386598 36:0.00773196 37:0 38:0 39:0 40:0.00128866 41:0.0064433 42:0.00257732 43:0.00257732 44:0 45:0.00515464 46:0.01159794 47:0.00128866 48:0.00257732 49:0 50:0.00386598 51:0 52:0.00257732 53:0.00515464 54:0.00257732 55:0.00257732 56:0.00386598 57:0 58:0.00257732 59:0.00773196 60:0 61:0 62:0.00128866 63:0.00128866 64:0.00128866 65:0 66:0.00128866 67:0 68:0.00128866 69:0.00386598 70:0.00515464 71:0.00128866 72:0.00128866 73:0 74:0.00128866 75:0 76:0.00128866 77:0 78:0.00257732 79:0.00515464 80:0 81:0 82:0 83:0.00257732 84:0.00386598 85:0.00515464 86:0 87:0.00128866 88:0 89:0.01030928 90:0.00257732 91:0.00128866 92:0.00257732 93:0 94:0.00515464 95:0.00128866 96:0.00773196 97:0.00257732 98:0.00257732 99:0 100:0.0064433 101:0 102:0.00257732 103:0.0064433 104:0.00128866 105:0.00257732 106:0 107:0.00128866 108:0.00128866 109:0.00257732 110:0.00386598 111:0.00515464 112:0.00128866 113:0.00773196 114:0.00386598 115:0.00257732 116:0.01030928 117:0.00128866 118:0 119:0.00515464 120:0.00515464 121:0 122:0.00128866 123:0.00128866 124:0.00386598 125:0 126:0.00515464 127:0.00128866 128:0 129:0 130:0 131:0 132:0.00257732 133:0.00386598 134:0.00128866 135:0.00128866 136:0 137:0.00128866 138:0 139:0 140:0.00128866 141:0.00128866 142:0.0064433 143:0.00257732 144:0.00128866 145:0.00515464 146:0.00257732 147:0.00128866 148:0.00386598 149:0.00257732 150:0.0064433 151:0 152:0 153:0 154:0.00128866 155:0.00257732 156:0.00257732 157:0.00386598 158:0.00257732 159:0.00515464 160:0.00128866 161:0.00257732 162:0.00773196 163:0 164:0.00257732 165:0.00515464 166:0 167:0.00386598 168:0 169:0 170:0.00128866 171:0.00386598 172:0 173:0.00257732 174:0.00257732 175:0.00386598 176:0 177:0 178:0 179:0.00128866 180:0.00257732 181:0.00128866 182:0.00386598 183:0.00257732 184:0.00902062 185:0.00257732 186:0 187:0.00128866 188:0.00257732 189:0.00773196 190:0 191:0.00515464 192:0 193:0.00128866 194:0.00257732 195:0.00386598 196:0.00386598 197:0.00386598 198:0.00773196 199:0.00773196 200:0.00128866 201:0 202:0.00515464 203:0 204:0.00257732 205:0.00386598 206:0 207:0 208:0.00128866 209:0.00257732 210:0.00515464 211:0.00515464 212:0 213:0.00128866 214:0.00515464 215:0.00386598 216:0.00128866 217:0 218:0 219:0 220:0.00257732 221:0.00386598 222:0.00257732 223:0.00515464 224:0.00386598 225:0.00257732 226:0.00515464 227:0.00128866 228:0.00128866 229:0.00386598 230:0.0064433 231:0.00386598 232:0.0064433 233:0 234:0 235:0.00386598 236:0.00386598 237:0.00257732 238:0.00515464 239:0.00128866 240:0.00257732 241:0.00386598 242:0.0064433 243:0 244:0.00128866 245:0.00773196 246:0.00128866 247:0 248:0.00128866 249:0.00257732 250:0 251:0 252:0 253:0.00773196 254:0 255:0.00128866 256:0.00128866 257:0.00257732 258:0.00773196 259:0.00515464 260:0 261:0 262:0.0064433 263:0 264:0.00257732 265:0.00257732 266:0 267:0 268:0 269:0.00386598 270:0.00257732 271:0.0064433 272:0 273:0.00257732 274:0.00515464 275:0.00515464 276:0.00386598 277:0.0064433 278:0.00515464 279:0.00128866 280:0.00386598 281:0.00257732 282:0.00128866 283:0.00257732 284:0.00386598 285:0 286:0 287:0.00257732 288:0.00128866 289:0.00257732 290:0 291:0.00257732 292:0.00257732 293:0.00128866 294:0.00128866 295:0.00773196 296:0.00128866 297:0.00128866 298:0.00257732 299:0.00257732 300:0 301:0.00386598 302:0.00386598 303:0 304:0.00257732 305:0.00515464 306:0 307:0.00515464 308:0.00515464 309:0 310:0.00128866 311:0.00386598 312:0 313:0.00386598 314:0 315:0.00773196 316:0.0064433 317:0.00128866 318:0.00128866 319:0.00128866 320:0.00128866 321:0.00386598 322:0.00128866 323:0.00128866 324:0.00257732 325:0.00386598 326:0.00515464 327:0.00257732 328:0.00128866 329:0 330:0 331:0.00257732 332:0.00515464 333:0.00515464 334:0.00128866 335:0 336:0.00257732 337:0.00128866 338:0 339:0.00128866 340:0 341:0 342:0 343:0 344:0.00128866 345:0.00515464 346:0.00257732 347:0.00257732 348:0 349:0.00515464 350:0 351:0 352:0 353:0.01417526 354:0.0064433 355:0 356:0.00128866 357:0.00386598 358:0.00128866 359:0.00128866 360:0.00128866 361:0.00128866 362:0.00386598 363:0.00257732 364:0 365:0.0064433 366:0.00257732 367:0.00257732 368:0.00128866 369:0.00386598 370:0.00257732 371:0.00515464 372:0 373:0.00386598 374:0.00128866 375:0.0064433 376:0.00386598 377:0 378:0.00257732 379:0.00386598 380:0.00386598 381:0.00386598 382:0 383:0.00257732 384:0.00128866 385:0 386:0 387:0.00515464 388:0.00386598 389:0.00386598 390:0.00257732 391:0.00515464 392:0 393:0.00128866 394:0.00257732 395:0.0064433 396:0 397:0.00128866 398:0 399:0.00386598 400:0 401:0.00386598 402:0.00128866 403:0.00128866 404:0.00386598 405:0.00128866 406:0.00128866 407:0.0064433 408:0.00515464 409:0.00128866 410:0.00128866 411:0.00257732 412:0.00128866 413:0.00515464 414:0.00386598 415:0.00128866 416:0.00386598 417:0.00128866 418:0.0064433 419:0.00128866 420:0 
6.673921289887137 1:0.01558442 2:0.00519481 3:0.05974026 4:0.06753247 5:0.01558442 6:0.04675325 7:0.02077922 8:0.08311688 9:0.1038961 10:0.08571429 11:0.02077922 12:0.08051948 13:0.04155844 14:0.04675325 15:0.00779221 16:0.07532468 17:0.0961039 18:0.04675325 19:0.01818182 20:0.06233766 21:0.00520833 22:0 23:0 24:0.0078125 25:0 26:0.01041667 27:0 28:0 29:0.00260417 30:0 31:0 32:0 33:0.0078125 34:0 35:0 36:0.00260417 37:0.00260417 38:0 39:0 40:0 41:0.00260417 42:0 43:0.0078125 44:0 45:0 46:0.01041667 47:0.00260417 48:0.0078125 49:0.00260417 50:0.00260417 51:0 52:0.00520833 53:0 54:0 55:0 56:0.00260417 57:0 58:0 59:0.00520833 60:0 61:0 62:0 63:0.00260417 64:0 65:0.00520833 66:0.00260417 67:0 68:0.00260417 69:0.00260417 70:0 71:0 72:0.00260417 73:0 74:0.00260417 75:0 76:0 77:0.00260417 78:0.00260417 79:0.00260417 80:0 81:0.00260417 82:0.00260417 83:0.00260417 84:0 85:0.01041667 86:0 87:0.00520833 88:0.00260417 89:0.01041667 90:0 91:0.00260417 92:0.0078125 93:0 94:0.00260417 95:0 96:0.01041667 97:0.00260417 98:0 99:0 100:0.015625 101:0 102:0.00260417 103:0.00260417 104:0.00260417 105:0.00260417 106:0 107:0 108:0 109:0 110:0 111:0.00260417 112:0.00520833 113:0.01041667 114:0 115:0.00260417 116:0.0078125 117:0 118:0 119:0 120:0.00260417 121:0 122:0 123:0.00260417 124:0.01302083 125:0.00520833 126:0.00260417 127:0 128:0 129:0 130:0 131:0.00520833 132:0 133:0 134:0 135:0.00260417 136:0 137:0 138:0.00520833 139:0 140:0 141:0 142:0.00520833 143:0 144:0.00520833 145:0.01041667 146:0 147:0 148:0.0078125 149:0.00260417 150:0.01041667 151:0 152:0.00260417 153:0 154:0.00260417 155:0 156:0 157:0.00260417 158:0 159:0 160:0.01041667 161:0 162:0 163:0 164:0.00520833 165:0 166:0 167:0 168:0.00260417 169:0.00260417 170:0.0078125 171:0.00260417 172:0 173:0.00260417 174:0.01041667 175:0 176:0.00260417 177:0 178:0 179:0 180:0 181:0.0078125 182:0.00520833 183:0.00520833 184:0.00520833 185:0.00260417 186:0 187:0.00260417 188:0.00260417 189:0.00520833 190:0 191:0.00260417 192:0 193:0.0078125 194:0.00260417 195:0.0078125 196:0 197:0.0078125 198:0.01302083 199:0 200:0 201:0 202:0.00520833 203:0.0078125 204:0.00520833 205:0 206:0 207:0 208:0.00520833 209:0.0078125 210:0.00520833 211:0.0078125 212:0 213:0 214:0.015625 215:0.00520833 216:0.00260417 217:0 218:0 219:0 220:0 221:0.0078125 222:0.00260417 223:0.01302083 224:0.01302083 225:0.00520833 226:0.00260417 227:0 228:0 229:0.0078125 230:0 231:0.015625 232:0 233:0 234:0 235:0 236:0 237:0 238:0.01041667 239:0 240:0.00260417 241:0.00520833 242:0.00520833 243:0 244:0 245:0.00260417 246:0 247:0.00260417 248:0.0078125 249:0 250:0 251:0 252:0 253:0.00520833 254:0 255:0 256:0.00260417 257:0.00520833 258:0 259:0.00260417 260:0 261:0 262:0.00260417 263:0 264:0.00260417 265:0.00260417 266:0 267:0.00520833 268:0 269:0.00520833 270:0.00520833 271:0 272:0 273:0.00520833 274:0.00260417 275:0.0078125 276:0.00260417 277:0.00520833 278:0 279:0.00260417 280:0.00520833 281:0 282:0.01302083 283:0.0078125 284:0.00520833 285:0.00260417 286:0 287:0 288:0 289:0 290:0.00260417 291:0 292:0 293:0 294:0.0078125 295:0.00260417 296:0 297:0.0078125 298:0.00260417 299:0.0078125 300:0.00260417 301:0.00260417 302:0.00260417 303:0 304:0 305:0 306:0.00260417 307:0 308:0.00520833 309:0.0078125 310:0.00260417 311:0.00260417 312:0 313:0.00260417 314:0.00260417 315:0.01041667 316:0 317:0 318:0 319:0 320:0 321:0.00260417 322:0 323:0 324:0.00520833 325:0 326:0 327:0.00260417 328:0 329:0.00260417 330:0.00520833 331:0 332:0.00520833 333:0.00520833 334:0 335:0 336:0 337:0 338:0.00260417 339:0.00520833 340:0 341:0 342:0 343:0 344:0.00260417 345:0 346:0.00260417 347:0 348:0 349:0.0078125 350:0 351:0 352:0 353:0.00260417 354:0.0078125 355:0 356:0 357:0 358:0 359:0.00260417 360:0.00520833 361:0.00260417 362:0.00260417 363:0.00260417 364:0 365:0 366:0.00260417 367:0 368:0 369:0.00260417 370:0 371:0.00520833 372:0 373:0.00260417 374:0.0078125 375:0.00260417 376:0 377:0 378:0.00520833 379:0 380:0.00260417 381:0.00260417 382:0 383:0 384:0 385:0 386:0 387:0.0078125 388:0.00520833 389:0 390:0.00520833 391:0.0078125 392:0 393:0.0078125 394:0.00260417 395:0 396:0 397:0.00260417 398:0 399:0 400:0 401:0 402:0.00260417 403:0 404:0.0078125 405:0.00520833 406:0 407:0 408:0 409:0.0078125 410:0 411:0.00260417 412:0 413:0.0078125 414:0.00260417 415:0.01041667 416:0 417:0 418:0.00260417 419:0.00260417 420:0 
3.544155119118587 1:0.04065041 2:0 3:0.04878049 4:0.05691057 5:0.03252033 6:0.10569106 7:0.04065041 8:0.06504065 9:0.05691057 10:0.03252033 11:0.01626016 12:0.08130081 13:0.01626016 14:0.04878049 15:0.03252033 16:0.10569106 17:0.11382114 18:0.04065041 19:0.00813008 20:0.05691057 21:0 22:0 23:0 24:0.00819672 25:0 26:0 27:0 28:0 29:0 30:0 31:0 32:0.00819672 33:0 34:0 35:0 36:0 37:0.00819672 38:0 39:0 40:0 41:0 42:0 43:0.00819672 44:0 45:0 46:0.00819672 47:0.00819672 48:0 49:0 50:0 51:0 52:0 53:0 54:0 55:0 56:0 57:0 58:0 59:0 60:0 61:0 62:0.00819672 63:0 64:0 65:0 66:0.00819672 67:0 68:0 69:0.00819672 70:0.01639344 71:0 72:0.00819672 73:0.00819672 74:0.00819672 75:0 76:0 77:0 78:0 79:0 80:0 81:0 82:0 83:0 84:0 85:0 86:0 87:0 88:0 89:0.00819672 90:0 91:0 92:0.01639344 93:0 94:0 95:0 96:0 97:0 98:0 99:0 100:0.00819672 101:0.00819672 102:0.00819672 103:0 104:0 105:0 106:0 107:0 108:0 109:0 110:0 111:0 112:0 113:0 114:0 115:0 116:0.02459016 117:0 118:0 119:0 120:0.01639344 121:0 122:0.00819672 123:0.02459016 124:0.01639344 125:0 126:0.01639344 127:0.00819672 128:0 129:0.00819672 130:0 131:0.00819672 132:0 133:0 134:0 135:0 136:0 137:0 138:0 139:0 140:0.00819672 141:0 142:0 143:0 144:0 145:0 146:0.01639344 147:0 148:0.00819672 149:0 150:0.01639344 151:0 152:0 153:0 154:0 155:0.00819672 156:0 157:0.00819672 158:0 159:0 160:0.02459016 161:0 162:0 163:0 164:0.00819672 165:0 166:0 167:0 168:0 169:0 170:0 171:0 172:0 173:0.00819672 174:0 175:0 176:0.00819672 177:0 178:0 179:0 180:0.01639344 181:0.00819672 182:0.00819672 183:0.00819672 184:0 185:0 186:0 187:0 188:0 189:0 190:0 191:0 192:0.02459016 193:0 194:0 195:0 196:0 197:0 198:0.00819672 199:0 200:0 201:0 202:0.00819672 203:0 204:0.00819672 205:0 206:0 207:0 208:0.00819672 209:0.01639344 210:0 211:0.00819672 212:0 213:0 214:0 215:0.00819672 216:0 217:0 218:0 219:0 220:0.00819672 221:0.00819672 222:0 223:0.00819672 224:0 225:0 226:0 227:0 228:0 229:0 230:0 231:0 232:0 233:0 234:0 235:0 236:0 237:0 238:0 239:0 240:0 241:0 242:0.00819672 243:0.00819672 244:0 245:0 246:0 247:0 248:0.00819672 249:0 250:0.00819672 251:0 252:0.00819672 253:0 254:0 255:0 256:0 257:0.00819672 258:0.00819672 259:0 260:0.01639344 261:0.00819672 262:0.00819672 263:0 264:0.00819672 265:0 266:0 267:0 268:0 269:0.00819672 270:0.00819672 271:0 272:0 273:0 274:0 275:0.00819672 276:0.00819672 277:0 278:0.00819672 279:0 280:0 281:0.00819672 282:0.00819672 283:0.00819672 284:0.00819672 285:0 286:0 287:0 288:0 289:0 290:0 291:0 292:0 293:0 294:0 295:0.01639344 296:0 297:0 298:0.00819672 299:0.00819672 300:0 301:0 302:0 303:0 304:0.00819672 305:0 306:0 307:0.00819672 308:0 309:0 310:0 311:0 312:0 313:0 314:0 315:0.00819672 316:0 317:0.00819672 318:0 319:0 320:0.00819672 321:0 322:0 323:0 324:0 325:0 326:0 327:0.00819672 328:0 329:0.00819672 330:0.00819672 331:0 332:0.00819672 333:0 334:0.00819672 335:0 336:0 337:0 338:0 339:0 340:0 341:0 342:0 343:0 344:0 345:0 346:0 347:0.00819672 348:0 349:0 350:0 351:0 352:0 353:0 354:0 355:0 356:0 357:0 358:0 359:0 360:0 361:0.00819672 362:0 363:0.00819672 364:0 365:0 366:0.00819672 367:0.00819672 368:0 369:0 370:0 371:0 372:0 373:0 374:0 375:0.00819672 376:0 377:0.00819672 378:0.01639344 379:0 380:0 381:0.00819672 382:0 383:0.00819672 384:0 385:0 386:0 387:0.00819672 388:0 389:0.00819672 390:0 391:0.00819672 392:0 393:0 394:0 395:0 396:0 397:0 398:0 399:0.00819672 400:0 401:0 402:0 403:0 404:0.00819672 405:0.00819672 406:0 407:0 408:0 409:0 410:0 411:0 412:0 413:0.00819672 414:0 415:0 416:0 417:0 418:0 419:0 420:0 
2.758875578542765 1:0.04078165 2:0.00679694 3:0.05012744 4:0.06966865 5:0.04163127 6:0.03738318 7:0.02039082 8:0.09090909 9:0.06796941 10:0.10025489 11:0.01869159 12:0.09260833 13:0.0382328 14:0.04757859 15:0.028887 16:0.08326253 17:0.06966865 18:0.03228547 19:0.01274427 20:0.05012744 21:0.00085034 22:0.00255102 23:0.00085034 24:0.00255102 25:0 26:0.00595238 27:0 28:0.00170068 29:0 30:0 31:0.00085034 32:0.00255102 33:0.00595238 34:0.00085034 35:0.00170068 36:0.00085034 37:0.00170068 38:0.00085034 39:0 40:0 41:0.00595238 42:0.00170068 43:0.00340136 44:0 45:0.00255102 46:0.00765306 47:0.00085034 48:0.00595238 49:0 50:0.00170068 51:0.00085034 52:0.0085034 53:0.00170068 54:0.00085034 55:0.00340136 56:0.00085034 57:0 58:0.00085034 59:0.00595238 60:0.00170068 61:0 62:0.00595238 63:0.00255102 64:0.00340136 65:0.00085034 66:0.00255102 67:0 68:0.00510204 69:0.00510204 70:0.00170068 71:0.00170068 72:0.00510204 73:0.00085034 74:0.00170068 75:0 76:0 77:0 78:0.00340136 79:0.00255102 80:0 81:0.00255102 82:0 83:0.00340136 84:0.00085034 85:0.0127551 86:0.00085034 87:0.00680272 88:0.00085034 89:0.00255102 90:0.00085034 91:0.00170068 92:0.0042517 93:0 94:0.00595238 95:0 96:0.00935374 97:0.00170068 98:0.00170068 99:0 100:0.00680272 101:0 102:0.00170068 103:0.00170068 104:0.00680272 105:0.00085034 106:0.00170068 107:0.00340136 108:0.00255102 109:0.00595238 110:0.00255102 111:0.00255102 112:0.00255102 113:0.00255102 114:0.00340136 115:0.00170068 116:0.00765306 117:0.0042517 118:0 119:0.00765306 120:0.00170068 121:0 122:0 123:0.00680272 124:0.00510204 125:0.00085034 126:0.00085034 127:0.00255102 128:0 129:0 130:0.00170068 131:0.0042517 132:0.00255102 133:0.00510204 134:0.00085034 135:0.00340136 136:0.00170068 137:0.00170068 138:0.00510204 139:0 140:0.00340136 141:0.00085034 142:0.00680272 143:0.00085034 144:0.00085034 145:0.0042517 146:0.00255102 147:0.0042517 148:0.00255102 149:0.00170068 150:0.00680272 151:0 152:0.00170068 153:0 154:0 155:0.00085034 156:0.00255102 157:0.00340136 158:0.00170068 159:0.00170068 160:0.00255102 161:0.00255102 162:0.00170068 163:0 164:0.00255102 165:0.00085034 166:0.00170068 167:0.00255102 168:0.00085034 169:0 170:0.00170068 171:0.0042517 172:0.00170068 173:0.00170068 174:0.01105442 175:0.00085034 176:0 177:0.00085034 178:0.00170068 179:0.00085034 180:0 181:0.00170068 182:0.00255102 183:0.00340136 184:0.0042517 185:0.00085034 186:0.00170068 187:0.0042517 188:0.00340136 189:0.00680272 190:0 191:0.00085034 192:0.00085034 193:0.00595238 194:0.00170068 195:0.00170068 196:0.00085034 197:0.00255102 198:0.0085034 199:0.00340136 200:0.00085034 201:0.00085034 202:0.00510204 203:0.00170068 204:0.00170068 205:0.00255102 206:0.00085034 207:0.00170068 208:0.00340136 209:0.0042517 210:0.00595238 211:0.00765306 212:0.0042517 213:0.0042517 214:0.00765306 215:0.00255102 216:0 217:0.00765306 218:0.00170068 219:0 220:0.00085034 221:0.00595238 222:0.00085034 223:0.00510204 224:0.00340136 225:0.00340136 226:0.00340136 227:0.00255102 228:0 229:0.00170068 230:0.0042517 231:0.00680272 232:0.0042517 233:0 234:0 235:0.00595238 236:0.00255102 237:0.00340136 238:0.0042517 239:0.00085034 240:0.0042517 241:0.00255102 242:0.00510204 243:0.00170068 244:0.00170068 245:0.00170068 246:0 247:0.00085034 248:0.00170068 249:0.00085034 250:0 251:0 252:0.00085034 253:0.00765306 254:0.00170068 255:0.00255102 256:0.00170068 257:0.0085034 258:0.00085034 259:0.00765306 260:0.00170068 261:0.00170068 262:0.00170068 263:0 264:0.00340136 265:0.00085034 266:0 267:0.00170068 268:0 269:0.00085034 270:0.00170068 271:0.00255102 272:0.00170068 273:0.00085034 274:0.00170068 275:0.0042517 276:0.0042517 277:0.00085034 278:0.00510204 279:0.00170068 280:0.00680272 281:0.00255102 282:0.00595238 283:0.00510204 284:0.0042517 285:0 286:0 287:0.00170068 288:0.00170068 289:0.00765306 290:0.00085034 291:0.00085034 292:0 293:0.00170068 294:0.00170068 295:0.00170068 296:0.00085034 297:0.00170068 298:0.00255102 299:0.00340136 300:0 301:0.00340136 302:0.00340136 303:0.00170068 304:0.00255102 305:0.00170068 306:0.00085034 307:0.00170068 308:0.00510204 309:0 310:0 311:0.00170068 312:0 313:0.0042517 314:0 315:0.00935374 316:0.00170068 317:0 318:0 319:0 320:0.0042517 321:0.00340136 322:0 323:0.00170068 324:0.00340136 325:0.0042517 326:0.00170068 327:0.00085034 328:0.00085034 329:0.00085034 330:0.00340136 331:0 332:0.00680272 333:0 334:0.00170068 335:0.00340136 336:0 337:0.00085034 338:0 339:0.00085034 340:0.00085034 341:0 342:0.00085034 343:0 344:0.00255102 345:0.00510204 346:0.00680272 347:0.0085034 348:0 349:0.00255102 350:0.00085034 351:0 352:0.00085034 353:0.00510204 354:0.01360544 355:0 356:0.00340136 357:0.00085034 358:0.00255102 359:0.00085034 360:0 361:0.00510204 362:0.0042517 363:0.00595238 364:0 365:0.00170068 366:0.00170068 367:0.00255102 368:0.00340136 369:0.00255102 370:0.00085034 371:0.00510204 372:0.00170068 373:0.00170068 374:0.0042517 375:0.00935374 376:0.0042517 377:0.00340136 378:0.00765306 379:0 380:0.0042517 381:0.00255102 382:0.00255102 383:0.00085034 384:0 385:0 386:0.00085034 387:0.0042517 388:0.0042517 389:0.00510204 390:0.0042517 391:0.00510204 392:0 393:0 394:0.01105442 395:0.00170068 396:0.00170068 397:0.00170068 398:0 399:0.00255102 400:0 401:0.01020408 402:0.00170068 403:0 404:0.00170068 405:0.00680272 406:0 407:0.0042517 408:0.00085034 409:0.00085034 410:0 411:0.00170068 412:0.00085034 413:0.00595238 414:0.00340136 415:0.00255102 416:0.00085034 417:0 418:0.0042517 419:0 420:0 
11.66461210899085 1:0.06786704 2:0 3:0.07617729 4:0.06786704 5:0.04709141 6:0.08587258 7:0.01108033 8:0.07479224 9:0.07617729 10:0.05817175 11:0.00554017 12:0.06786704 13:0.04155125 14:0.02077562 15:0.03601108 16:0.06232687 17:0.07894737 18:0.07894737 19:0.00831025 20:0.03462604 21:0.00277393 22:0.00693481 23:0 24:0.00138696 25:0 26:0.00277393 27:0.00138696 28:0.00277393 29:0 30:0.00277393 31:0 32:0 33:0.0110957 34:0.00416089 35:0 36:0 37:0 38:0.00138696 39:0 40:0 41:0.00277393 42:0 43:0.00693481 44:0 45:0.00416089 46:0.00416089 47:0.00138696 48:0.00138696 49:0 50:0 51:0 52:0.00970874 53:0.00277393 54:0 55:0.00416089 56:0.0110957 57:0 58:0.00138696 59:0.00416089 60:0 61:0.00277393 62:0.00554785 63:0 64:0.00277393 65:0.00277393 66:0.00277393 67:0 68:0 69:0.00277393 70:0.00416089 71:0 72:0 73:0 74:0.00416089 75:0 76:0.00138696 77:0 78:0.00277393 79:0.00416089 80:0 81:0.00138696 82:0 83:0.00138696 84:0 85:0.00138696 86:0.00138696 87:0 88:0.00554785 89:0 90:0.00277393 91:0.00138696 92:0.00693481 93:0 94:0.00277393 95:0 96:0.00416089 97:0.00138696 98:0.00416089 99:0 100:0.00554785 101:0 102:0.00138696 103:0 104:0.00416089 105:0.00693481 106:0 107:0 108:0.00138696 109:0 110:0.00138696 111:0.00277393 112:0.00970874 113:0.01248266 114:0.00554785 115:0.00693481 116:0.00970874 117:0.00277393 118:0.00138696 119:0.00138696 120:0.00416089 121:0 122:0.00277393 123:0.00554785 124:0.00693481 125:0 126:0.00416089 127:0 128:0 129:0.00138696 130:0 131:0.00277393 132:0.00277393 133:0.00416089 134:0 135:0.00416089 136:0.00554785 137:0 138:0 139:0 140:0.00138696 141:0 142:0 143:0.00138696 144:0.00138696 145:0.00277393 146:0.00554785 147:0.00416089 148:0.00554785 149:0 150:0.00832178 151:0 152:0.00138696 153:0 154:0.00277393 155:0.00138696 156:0.00138696 157:0.00832178 158:0.00138696 159:0.00693481 160:0.00832178 161:0.00554785 162:0.00138696 163:0 164:0.00832178 165:0.00277393 166:0.00138696 167:0.00138696 168:0 169:0 170:0.00138696 171:0.00832178 172:0 173:0 174:0.00554785 175:0 176:0 177:0 178:0 179:0 180:0.00138696 181:0.01386963 182:0 183:0.00554785 184:0.00416089 185:0 186:0 187:0 188:0 189:0.00277393 190:0 191:0.00970874 192:0.00138696 193:0.0110957 194:0 195:0.00138696 196:0.00554785 197:0.00277393 198:0.00554785 199:0.00138696 200:0.00138696 201:0 202:0.00693481 203:0.00138696 204:0 205:0.00416089 206:0 207:0 208:0 209:0.00554785 210:0.00554785 211:0.00277393 212:0.00277393 213:0.00138696 214:0.0110957 215:0.00277393 216:0 217:0.00832178 218:0 219:0 220:0.00138696 221:0.00138696 222:0 223:0.00416089 224:0.00138696 225:0.00693481 226:0.00138696 227:0 228:0 229:0.00554785 230:0.00416089 231:0.00416089 232:0.00138696 233:0 234:0 235:0.00416089 236:0.00138696 237:0 238:0.00693481 239:0 240:0 241:0.00277393 242:0.00970874 243:0.00138696 244:0 245:0.00416089 246:0.00277393 247:0 248:0.01248266 249:0.00277393 250:0 251:0 252:0.00416089 253:0.00832178 254:0.00693481 255:0 256:0.00138696 257:0.00138696 258:0.00554785 259:0.00277393 260:0.00416089 261:0.00416089 262:0.00277393 263:0 264:0.00277393 265:0.00832178 266:0 267:0 268:0 269:0 270:0.00554785 271:0.00693481 272:0 273:0 274:0.00970874 275:0.00554785 276:0 277:0.00138696 278:0.00138696 279:0.00138696 280:0.00138696 281:0.00970874 282:0.00138696 283:0 284:0.00277393 285:0.00138696 286:0 287:0.00138696 288:0.00138696 289:0 290:0 291:0.00138696 292:0.00554785 293:0.00277393 294:0 295:0.00554785 296:0 297:0.00970874 298:0.00693481 299:0.00554785 300:0 301:0.00138696 302:0.00416089 303:0.00138696 304:0.00970874 305:0.00416089 306:0 307:0.00416089 308:0.00138696 309:0.00693481 310:0 311:0.00277393 312:0 313:0.00832178 314:0 315:0.00416089 316:0.00138696 317:0.00138696 318:0 319:0 320:0.00277393 321:0.00277393 322:0 323:0 324:0 325:0.00416089 326:0.00416089 327:0.00138696 328:0.00138696 329:0 330:0.00277393 331:0.00138696 332:0.00277393 333:0.00277393 334:0.00416089 335:0 336:0 337:0 338:0 339:0 340:0 341:0.00138696 342:0 343:0 344:0.00277393 345:0.00693481 346:0 347:0.00416089 348:0 349:0.00277393 350:0 351:0 352:0 353:0.00277393 354:0.00693481 355:0 356:0.00416089 357:0.00277393 358:0 359:0 360:0.00138696 361:0.00554785 362:0 363:0.00554785 364:0 365:0.00554785 366:0 367:0.0110957 368:0.00277393 369:0.00832178 370:0 371:0.00554785 372:0 373:0 374:0.00138696 375:0.00416089 376:0.00416089 377:0 378:0.00693481 379:0.00138696 380:0.00416089 381:0.00277393 382:0 383:0 384:0 385:0 386:0.00138696 387:0.00277393 388:0.00416089 389:0 390:0.00277393 391:0 392:0 393:0 394:0.00970874 395:0.00277393 396:0.00138696 397:0.00554785 398:0.00277393 399:0 400:0 401:0.00277393 402:0.00138696 403:0 404:0 405:0.00693481 406:0 407:0.00693481 408:0.00277393 409:0.00277393 410:0 411:0.00277393 412:0.00138696 413:0.00554785 414:0.00832178 415:0.00138696 416:0.00138696 417:0 418:0.01248266 419:0 420:0 
4.881443428763065 1:0.04496788 2:0.01498929 3:0.05353319 4:0.05781585 5:0.05353319 6:0.05567452 7:0.02783726 8:0.07494647 9:0.02997859 10:0.0856531 11:0.01498929 12:0.10278373 13:0.05139186 14:0.0385439 15:0.06852248 16:0.07280514 17:0.05781585 18:0.04496788 19:0.01284797 20:0.03640257 21:0.00214592 22:0.00214592 23:0 24:0 25:0 26:0 27:0.00214592 28:0.00214592 29:0.00214592 30:0.00429185 31:0.00214592 32:0 33:0.00429185 34:0.00429185 35:0 36:0.00429185 37:0.00214592 38:0 39:0.00214592 40:0.00214592 41:0.00858369 42:0.00643777 43:0.00214592 44:0 45:0.00643777 46:0.00214592 47:0 48:0.00214592 49:0 50:0 51:0 52:0 53:0 54:0 55:0 56:0.00429185 57:0 58:0 59:0.00643777 60:0.00214592 61:0.00429185 62:0.01072961 63:0 64:0.00214592 65:0.00429185 66:0.00429185 67:0 68:0.00214592 69:0.01072961 70:0 71:0 72:0 73:0 74:0 75:0 76:0.00214592 77:0.00214592 78:0 79:0.00858369 80:0 81:0.00214592 82:0 83:0.00858369 84:0.00429185 85:0.00214592 86:0.00214592 87:0.00214592 88:0.00643777 89:0.00214592 90:0 91:0.00429185 92:0.00429185 93:0.00214592 94:0.00858369 95:0 96:0.00429185 97:0.00214592 98:0.00214592 99:0.00214592 100:0 101:0 102:0.00214592 103:0 104:0.00214592 105:0.00214592 106:0.00214592 107:0.00214592 108:0.00214592 109:0.00429185 110:0.00214592 111:0 112:0 113:0.00214592 114:0.00214592 115:0.00214592 116:0.00858369 117:0.00214592 118:0 119:0.00214592 120:0.00214592 121:0 122:0 123:0.00214592 124:0 125:0 126:0.00643777 127:0.00643777 128:0 129:0 130:0.00214592 131:0 132:0.00214592 133:0.00214592 134:0 135:0 136:0.00643777 137:0.00214592 138:0.00643777 139:0 140:0 141:0.00214592 142:0.00643777 143:0.00858369 144:0 145:0.00429185 146:0 147:0.00214592 148:0.00214592 149:0.00214592 150:0.00429185 151:0 152:0 153:0 154:0 155:0.00214592 156:0.00214592 157:0.00429185 158:0.00214592 159:0.00214592 160:0.00214592 161:0.00214592 162:0 163:0 164:0.00643777 165:0.00214592 166:0 167:0 168:0 169:0.00214592 170:0.00214592 171:0.00643777 172:0.00214592 173:0 174:0.00643777 175:0 176:0 177:0.00214592 178:0 179:0.00214592 180:0.00429185 181:0.00429185 182:0.00643777 183:0.00643777 184:0.00643777 185:0.00214592 186:0 187:0.00214592 188:0.00429185 189:0.00429185 190:0 191:0 192:0.00214592 193:0.00214592 194:0.00214592 195:0.00429185 196:0.00214592 197:0.00214592 198:0.00429185 199:0.00214592 200:0 201:0.00429185 202:0.00643777 203:0.00858369 204:0.00214592 205:0 206:0 207:0.00214592 208:0 209:0.00429185 210:0.00429185 211:0.00429185 212:0 213:0 214:0.00858369 215:0 216:0 217:0.00858369 218:0 219:0 220:0 221:0 222:0 223:0.00643777 224:0.00429185 225:0.00214592 226:0 227:0 228:0 229:0.00643777 230:0.00429185 231:0.00643777 232:0.00214592 233:0 234:0.00214592 235:0.00214592 236:0.01072961 237:0.00858369 238:0 239:0 240:0.00214592 241:0.00643777 242:0.00429185 243:0.00858369 244:0 245:0.00214592 246:0.00858369 247:0 248:0.00214592 249:0.00429185 250:0.00214592 251:0.00214592 252:0 253:0.00214592 254:0 255:0.00214592 256:0.00429185 257:0.00214592 258:0 259:0.00643777 260:0.01072961 261:0.00643777 262:0.00429185 263:0 264:0 265:0.00214592 266:0 267:0.00214592 268:0 269:0.00429185 270:0.00214592 271:0.00643777 272:0 273:0 274:0.00214592 275:0 276:0.00214592 277:0 278:0 279:0.00214592 280:0.00429185 281:0.00643777 282:0.00643777 283:0.00214592 284:0 285:0 286:0 287:0.00429185 288:0.00214592 289:0 290:0.00429185 291:0 292:0.00429185 293:0.00643777 294:0 295:0.00643777 296:0.00214592 297:0.00214592 298:0.00429185 299:0.00214592 300:0.00214592 301:0.00429185 302:0.01287554 303:0 304:0.00429185 305:0 306:0.00214592 307:0 308:0 309:0 310:0 311:0.00858369 312:0.00214592 313:0.00429185 314:0 315:0.01072961 316:0.00214592 317:0.00214592 318:0.00643777 319:0 320:0.00858369 321:0 322:0 323:0.00429185 324:0.00429185 325:0.00643777 326:0 327:0.00214592 328:0 329:0 330:0.00214592 331:0 332:0.00214592 333:0.00214592 334:0.00214592 335:0 336:0 337:0 338:0.00214592 339:0 340:0 341:0 342:0.00214592 343:0 344:0 345:0.00643777 346:0.00643777 347:0.00429185 348:0.00214592 349:0.00214592 350:0.00214592 351:0 352:0.00214592 353:0.00214592 354:0.01502146 355:0 356:0.00214592 357:0.00214592 358:0.00429185 359:0.00214592 360:0 361:0.00214592 362:0.00214592 363:0.00643777 364:0 365:0.00429185 366:0.00214592 367:0.00214592 368:0.00643777 369:0.00429185 370:0 371:0.00214592 372:0.00214592 373:0 374:0 375:0.00214592 376:0.00643777 377:0 378:0.00643777 379:0 380:0.00429185 381:0.00214592 382:0 383:0.00214592 384:0 385:0.00214592 386:0 387:0.00858369 388:0.00214592 389:0.00643777 390:0.00214592 391:0.00214592 392:0 393:0 394:0.00214592 395:0.00429185 396:0 397:0.00214592 398:0.00429185 399:0.00214592 400:0 401:0.00858369 402:0.00643777 403:0 404:0.00643777 405:0.01072961 406:0 407:0.00643777 408:0.00214592 409:0 410:0 411:0.00214592 412:0.00214592 413:0.00858369 414:0.00214592 415:0 416:0.00214592 417:0.00214592 418:0.00214592 419:0 420:0 
0.7202761041950061 1:0.04698972 2:0.00293686 3:0.05580029 4:0.04258443 5:0.04992658 6:0.04258443 7:0.01762115 8:0.08957416 9:0.05286344 10:0.0660793 11:0.01615272 12:0.10132159 13:0.04111601 14:0.04258443 15:0.04405286 16:0.0660793 17:0.09104258 18:0.05286344 19:0.01615272 20:0.06167401 21:0.00294118 22:0.00735294 23:0.00147059 24:0.00588235 25:0 26:0 27:0 28:0.00147059 29:0.00147059 30:0 31:0 32:0 33:0.00441176 34:0.00441176 35:0.00147059 36:0.00588235 37:0.00147059 38:0 39:0 40:0 41:0.00441176 42:0.00147059 43:0 44:0 45:0 46:0.00882353 47:0 48:0.00147059 49:0 50:0.00294118 51:0 52:0.00441176 53:0.00441176 54:0 55:0.00294118 56:0.00294118 57:0 58:0 59:0.00588235 60:0 61:0.00147059 62:0.00588235 63:0.00147059 64:0.00588235 65:0.00147059 66:0.00441176 67:0 68:0.00147059 69:0.00441176 70:0 71:0.00441176 72:0.00441176 73:0.00294118 74:0 75:0 76:0.00147059 77:0 78:0 79:0.00588235 80:0 81:0 82:0.00294118 83:0.00294118 84:0 85:0.00441176 86:0.00147059 87:0.00588235 88:0.00882353 89:0.00882353 90:0.00441176 91:0.00147059 92:0.00294118 93:0.00147059 94:0 95:0 96:0.01176471 97:0.00147059 98:0.00294118 99:0.00147059 100:0.01029412 101:0 102:0.00294118 103:0 104:0.00147059 105:0 106:0.00147059 107:0.00294118 108:0.00147059 109:0.00294118 110:0 111:0.00294118 112:0.00294118 113:0.00294118 114:0.00147059 115:0.00441176 116:0.01029412 117:0.00735294 118:0 119:0.00294118 120:0.00294118 121:0 122:0.00147059 123:0.00588235 124:0.00735294 125:0.00147059 126:0.00294118 127:0.00294118 128:0 129:0 130:0.00147059 131:0.00882353 132:0.00441176 133:0 134:0 135:0 136:0 137:0 138:0.00147059 139:0.00147059 140:0 141:0 142:0.00441176 143:0.00147059 144:0 145:0.00441176 146:0.00294118 147:0.00441176 148:0.00588235 149:0.00588235 150:0.00441176 151:0 152:0 153:0 154:0 155:0.00294118 156:0 157:0.00588235 158:0.00147059 159:0.00294118 160:0.00735294 161:0.00147059 162:0 163:0.00147059 164:0.00441176 165:0.00294118 166:0.00294118 167:0 168:0 169:0 170:0.01029412 171:0.00294118 172:0 173:0 174:0.00294118 175:0 176:0 177:0 178:0.00147059 179:0 180:0.00147059 181:0.00294118 182:0.00147059 183:0.00882353 184:0.00441176 185:0 186:0 187:0.00588235 188:0.00294118 189:0.00294118 190:0 191:0.00147059 192:0.00294118 193:0.00441176 194:0.00441176 195:0.00588235 196:0.00147059 197:0.00147059 198:0 199:0.00882353 200:0.00147059 201:0.00147059 202:0.00441176 203:0.00294118 204:0.00441176 205:0.00294118 206:0 207:0.00294118 208:0.00147059 209:0.00441176 210:0.00588235 211:0.00294118 212:0.00294118 213:0.00588235 214:0.00882353 215:0 216:0 217:0.00294118 218:0 219:0 220:0.00147059 221:0.00441176 222:0 223:0.00294118 224:0.00588235 225:0.00441176 226:0.01029412 227:0.00147059 228:0 229:0.00441176 230:0 231:0.00588235 232:0.00882353 233:0 234:0.00147059 235:0.00441176 236:0.01176471 237:0.00147059 238:0.00441176 239:0 240:0.00294118 241:0.00588235 242:0.00441176 243:0.00441176 244:0 245:0.00147059 246:0.00294118 247:0 248:0.00735294 249:0.00441176 250:0.00147059 251:0 252:0 253:0.00441176 254:0.00441176 255:0 256:0.00441176 257:0 258:0.00147059 259:0.00147059 260:0 261:0.00147059 262:0.00147059 263:0 264:0.00294118 265:0.00147059 266:0 267:0 268:0 269:0.00147059 270:0.00588235 271:0.00294118 272:0.00294118 273:0 274:0.00147059 275:0.00294118 276:0.00294118 277:0.00294118 278:0.00294118 279:0 280:0.01176471 281:0.00735294 282:0.00294118 283:0.00147059 284:0.00441176 285:0 286:0 287:0 288:0.00294118 289:0.00294118 290:0.00147059 291:0 292:0.00147059 293:0.00147059 294:0.00147059 295:0.00147059 296:0 297:0.00294118 298:0.00441176 299:0.00294118 300:0.00147059 301:0.00441176 302:0.00147059 303:0 304:0.00147059 305:0.00441176 306:0 307:0 308:0 309:0 310:0 311:0.00588235 312:0.00441176 313:0.00735294 314:0 315:0.00588235 316:0 317:0.00147059 318:0 319:0 320:0.00735294 321:0.00294118 322:0 323:0 324:0.00588235 325:0.00441176 326:0 327:0.00441176 328:0.00147059 329:0.00588235 330:0.00147059 331:0.00147059 332:0.00735294 333:0 334:0.00147059 335:0 336:0 337:0 338:0 339:0.00147059 340:0 341:0 342:0.00147059 343:0 344:0.00147059 345:0.00294118 346:0.00441176 347:0 348:0 349:0.00441176 350:0.00294118 351:0 352:0 353:0.00147059 354:0.00882353 355:0 356:0.00147059 357:0.00294118 358:0.00294118 359:0 360:0 361:0.00588235 362:0.00294118 363:0.00147059 364:0 365:0.00441176 366:0.00294118 367:0.00294118 368:0.00147059 369:0.00294118 370:0.00147059 371:0.00147059 372:0 373:0.00294118 374:0.00147059 375:0.00441176 376:0.01176471 377:0 378:0.00735294 379:0 380:0.00882353 381:0.00294118 382:0.00147059 383:0.00588235 384:0 385:0.00147059 386:0.00441176 387:0.01029412 388:0.00294118 389:0 390:0.00294118 391:0.00441176 392:0 393:0 394:0.00441176 395:0.00294118 396:0.00588235 397:0.00294118 398:0.00147059 399:0.00147059 400:0 401:0.00441176 402:0.00294118 403:0 404:0.00441176 405:0.00588235 406:0.00294118 407:0.00294118 408:0.00294118 409:0.00294118 410:0.00294118 411:0 412:0.00147059 413:0.01029412 414:0.00147059 415:0.00147059 416:0.00294118 417:0.00147059 418:0.00588235 419:0 420:0 
2.851917247962579 1:0.05894737 2:0.01052632 3:0.07578947 4:0.06105263 5:0.02526316 6:0.04 7:0.01894737 8:0.08631579 9:0.07789474 10:0.08842105 11:0.01684211 12:0.09263158 13:0.02526316 14:0.06526316 15:0.02105263 16:0.08 17:0.05684211 18:0.04 19:0.01684211 20:0.04210526 21:0.0021097 22:0.00421941 23:0 24:0.0021097 25:0 26:0.01265823 27:0 28:0.00421941 29:0 30:0.0021097 31:0 32:0.0021097 33:0.00632911 34:0.0021097 35:0 36:0 37:0.00632911 38:0 39:0 40:0 41:0.00632911 42:0.0021097 43:0 44:0 45:0.00421941 46:0.00843882 47:0.0021097 48:0.0021097 49:0 50:0.0021097 51:0 52:0.00421941 53:0.0021097 54:0 55:0 56:0.00632911 57:0 58:0 59:0.00421941 60:0.00421941 61:0.0021097 62:0.00421941 63:0 64:0.0021097 65:0.00421941 66:0 67:0 68:0 69:0.01476793 70:0.00421941 71:0.0021097 72:0 73:0 74:0.00843882 75:0 76:0 77:0.0021097 78:0 79:0 80:0 81:0 82:0 83:0 84:0.00421941 85:0.00632911 86:0.0021097 87:0 88:0.00421941 89:0.01054852 90:0 91:0 92:0.0021097 93:0.0021097 94:0.00632911 95:0.00632911 96:0.00421941 97:0.0021097 98:0 99:0 100:0.00632911 101:0.00421941 102:0.00421941 103:0.0021097 104:0.0021097 105:0 106:0.0021097 107:0.00632911 108:0 109:0.0021097 110:0.0021097 111:0.0021097 112:0.0021097 113:0.00843882 114:0.00421941 115:0 116:0.01054852 117:0.0021097 118:0 119:0.00421941 120:0 121:0.0021097 122:0 123:0.00421941 124:0.01265823 125:0 126:0.0021097 127:0 128:0.0021097 129:0.0021097 130:0 131:0.0021097 132:0.0021097 133:0.0021097 134:0 135:0.00421941 136:0.00632911 137:0 138:0 139:0 140:0.00421941 141:0 142:0.00843882 143:0 144:0.00632911 145:0.00421941 146:0.0021097 147:0 148:0 149:0 150:0.00632911 151:0.0021097 152:0 153:0 154:0 155:0 156:0.00421941 157:0.0021097 158:0.00421941 159:0 160:0.00632911 161:0.00632911 162:0 163:0.0021097 164:0.0021097 165:0.00421941 166:0.0021097 167:0 168:0 169:0 170:0.00843882 171:0.00632911 172:0.0021097 173:0 174:0.01476793 175:0 176:0.0021097 177:0 178:0 179:0 180:0.00421941 181:0.00421941 182:0 183:0.00843882 184:0.01687764 185:0 186:0.0021097 187:0 188:0 189:0.00632911 190:0 191:0 192:0 193:0.00421941 194:0.00843882 195:0 196:0 197:0.0021097 198:0.00843882 199:0.0021097 200:0 201:0.0021097 202:0.0021097 203:0 204:0.00632911 205:0.00421941 206:0 207:0.0021097 208:0.00632911 209:0 210:0 211:0.00632911 212:0.00632911 213:0.0021097 214:0 215:0 216:0 217:0 218:0 219:0 220:0 221:0.01054852 222:0 223:0.01898734 224:0.0021097 225:0.00421941 226:0.0021097 227:0.00421941 228:0 229:0.00421941 230:0.0021097 231:0.0021097 232:0 233:0 234:0 235:0 236:0.0021097 237:0.00421941 238:0.00843882 239:0 240:0 241:0.00632911 242:0 243:0 244:0 245:0.0021097 246:0 247:0 248:0.0021097 249:0 250:0.0021097 251:0 252:0 253:0.00632911 254:0.0021097 255:0 256:0 257:0.00843882 258:0.00632911 259:0.00421941 260:0.0021097 261:0.0021097 262:0.00632911 263:0 264:0.0021097 265:0 266:0 267:0 268:0 269:0.0021097 270:0.0021097 271:0.00421941 272:0 273:0 274:0.00421941 275:0.0021097 276:0.0021097 277:0 278:0.00632911 279:0 280:0.00632911 281:0 282:0 283:0.00632911 284:0 285:0.00421941 286:0 287:0 288:0.0021097 289:0.0021097 290:0 291:0 292:0 293:0.0021097 294:0.0021097 295:0 296:0 297:0 298:0.00421941 299:0.00421941 300:0 301:0.0021097 302:0.0021097 303:0 304:0.0021097 305:0.00843882 306:0.0021097 307:0.00421941 308:0.00632911 309:0.00632911 310:0 311:0.0021097 312:0.00632911 313:0.00421941 314:0 315:0.00632911 316:0.00421941 317:0.00421941 318:0.00421941 319:0.0021097 320:0.00632911 321:0.0021097 322:0 323:0 324:0.00632911 325:0.00421941 326:0.00843882 327:0.00421941 328:0 329:0.0021097 330:0.0021097 331:0 332:0.0021097 333:0 334:0.00421941 335:0 336:0.00421941 337:0 338:0 339:0 340:0 341:0 342:0 343:0.0021097 344:0.00421941 345:0.0021097 346:0 347:0.0021097 348:0.00421941 349:0.0021097 350:0 351:0.0021097 352:0.0021097 353:0.0021097 354:0.01476793 355:0 356:0.0021097 357:0 358:0 359:0 360:0 361:0.0021097 362:0.0021097 363:0.00632911 364:0 365:0 366:0.00632911 367:0.0021097 368:0.00632911 369:0.00421941 370:0 371:0.00632911 372:0 373:0.00421941 374:0 375:0.00843882 376:0.00421941 377:0.0021097 378:0.00843882 379:0 380:0 381:0.0021097 382:0 383:0.00421941 384:0 385:0 386:0 387:0.00632911 388:0 389:0.0021097 390:0 391:0.00843882 392:0 393:0 394:0.00421941 395:0 396:0 397:0 398:0.0021097 399:0 400:0 401:0.00843882 402:0.00421941 403:0 404:0.00632911 405:0.01265823 406:0.0021097 407:0.00421941 408:0.0021097 409:0 410:0 411:0.0021097 412:0 413:0.00843882 414:0.00632911 415:0.00632911 416:0.00421941 417:0.00421941 418:0.0021097 419:0 420:0 
0.06826237383487518 1:0.03617571 2:0.00258398 3:0.04392765 4:0.05684755 5:0.02067183 6:0.05684755 7:0.01033592 8:0.08010336 9:0.06976744 10:0.0878553 11:0.0129199 12:0.10077519 13:0.02583979 14:0.04392765 15:0.01808786 16:0.07751938 17:0.12144703 18:0.05167959 19:0.02067183 20:0.0620155 21:0.00518135 22:0.00777202 23:0 24:0 25:0 26:0.00518135 27:0 28:0 29:0.00259067 30:0 31:0.00259067 32:0 33:0.00518135 34:0 35:0 36:0.00518135 37:0 38:0 39:0 40:0 41:0.00777202 42:0 43:0.00259067 44:0 45:0 46:0.00777202 47:0 48:0.00518135 49:0 50:0.00259067 51:0 52:0 53:0 54:0 55:0 56:0.00518135 57:0 58:0 59:0.00777202 60:0.00259067 61:0 62:0 63:0.00259067 64:0 65:0 66:0.00259067 67:0 68:0.00518135 69:0 70:0.00259067 71:0.00259067 72:0 73:0 74:0.00259067 75:0 76:0 77:0 78:0 79:0.00777202 80:0 81:0 82:0.00259067 83:0 84:0 85:0.01036269 86:0.00259067 87:0.00259067 88:0.00259067 89:0.00518135 90:0 91:0.00259067 92:0.01295337 93:0 94:0.00777202 95:0 96:0.01295337 97:0 98:0 99:0 100:0.00518135 101:0 102:0.00259067 103:0 104:0.00259067 105:0.00259067 106:0 107:0.00259067 108:0 109:0.00259067 110:0 111:0.00518135 112:0.00518135 113:0.00259067 114:0.00259067 115:0.00518135 116:0.00518135 117:0.00259067 118:0 119:0.00518135 120:0.00259067 121:0 122:0 123:0.02072539 124:0.01295337 125:0 126:0.01036269 127:0 128:0 129:0.00259067 130:0 131:0.00259067 132:0.00259067 133:0 134:0 135:0.01036269 136:0 137:0 138:0.00518135 139:0 140:0.00259067 141:0 142:0.00259067 143:0 144:0 145:0.00777202 146:0.00259067 147:0.00518135 148:0.01036269 149:0 150:0.00518135 151:0 152:0.00259067 153:0 154:0 155:0 156:0 157:0.00259067 158:0 159:0 160:0.00777202 161:0 162:0 163:0 164:0.00518135 165:0 166:0 167:0 168:0 169:0 170:0.00777202 171:0 172:0 173:0 174:0.01036269 175:0 176:0.00259067 177:0 178:0 179:0 180:0 181:0.00777202 182:0.00518135 183:0 184:0.00259067 185:0 186:0 187:0.00259067 188:0.00259067 189:0.00518135 190:0 191:0 192:0 193:0.00259067 194:0 195:0.00259067 196:0 197:0.00518135 198:0.00777202 199:0 200:0 201:0.00259067 202:0.00259067 203:0.00259067 204:0.00259067 205:0.00259067 206:0.00259067 207:0.00259067 208:0.00777202 209:0.01036269 210:0.01036269 211:0.01036269 212:0 213:0.00259067 214:0.01295337 215:0.00777202 216:0 217:0 218:0 219:0 220:0.00518135 221:0.01813472 222:0.00259067 223:0.00259067 224:0.00518135 225:0.00259067 226:0.00518135 227:0 228:0 229:0.00777202 230:0 231:0.00777202 232:0.00518135 233:0 234:0 235:0.00259067 236:0.00259067 237:0 238:0.00518135 239:0 240:0.00259067 241:0.00518135 242:0.01036269 243:0 244:0 245:0 246:0 247:0.00518135 248:0.00518135 249:0 250:0 251:0 252:0.00259067 253:0.00518135 254:0 255:0 256:0.00259067 257:0.00259067 258:0.00518135 259:0.00518135 260:0 261:0 262:0.00518135 263:0 264:0 265:0.00518135 266:0 267:0 268:0 269:0.00259067 270:0 271:0 272:0 273:0.00259067 274:0 275:0.00777202 276:0.00259067 277:0.00259067 278:0.00259067 279:0 280:0 281:0.00259067 282:0.00259067 283:0.00259067 284:0.00518135 285:0.00259067 286:0 287:0 288:0 289:0.00259067 290:0.00518135 291:0.00259067 292:0 293:0 294:0.00259067 295:0.00518135 296:0 297:0.00518135 298:0.00259067 299:0.00777202 300:0.00259067 301:0.00518135 302:0.00259067 303:0.00259067 304:0 305:0 306:0 307:0.00259067 308:0 309:0.00518135 310:0.00259067 311:0.00259067 312:0.00259067 313:0.00259067 314:0.00259067 315:0.01295337 316:0 317:0 318:0 319:0 320:0.00259067 321:0.00259067 322:0 323:0 324:0.00777202 325:0.00259067 326:0 327:0.00259067 328:0 329:0.00259067 330:0.00259067 331:0 332:0.00518135 333:0.00518135 334:0.00518135 335:0 336:0 337:0 338:0.00259067 339:0.00259067 340:0 341:0 342:0 343:0 344:0.00259067 345:0.00777202 346:0.00259067 347:0.00259067 348:0 349:0.00777202 350:0.00259067 351:0 352:0 353:0.00777202 354:0.00777202 355:0 356:0.00518135 357:0 358:0 359:0 360:0 361:0.00518135 362:0.00518135 363:0.00777202 364:0.00259067 365:0 366:0.00259067 367:0.00777202 368:0.00259067 369:0.00259067 370:0 371:0 372:0 373:0 374:0.00518135 375:0.00777202 376:0 377:0 378:0.00518135 379:0 380:0 381:0.00518135 382:0 383:0 384:0 385:0.00259067 386:0 387:0.00777202 388:0.00518135 389:0 390:0.00259067 391:0.00777202 392:0 393:0.00259067 394:0.00518135 395:0 396:0 397:0 398:0 399:0 400:0 401:0.00777202 402:0.00259067 403:0 404:0.00777202 405:0.00777202 406:0 407:0.00259067 408:0.00259067 409:0.00259067 410:0 411:0.00259067 412:0.00259067 413:0.00777202 414:0.00518135 415:0.00259067 416:0 417:0 418:0.01295337 419:0 420:0 
2.477630498164224 1:0.04142012 2:0.01775148 3:0.04142012 4:0.05029586 5:0.05621302 6:0.06508876 7:0.00887574 8:0.05325444 9:0.04142012 10:0.04733728 11:0.01775148 12:0.07100592 13:0.05325444 14:0.05325444 15:0.03550296 16:0.09171598 17:0.13609467 18:0.06804734 19:0.00591716 20:0.0443787 21:0 22:0 23:0.00296736 24:0 25:0 26:0.00296736 27:0 28:0 29:0 30:0 31:0 32:0 33:0.00296736 34:0.00593472 35:0 36:0.00593472 37:0 38:0 39:0 40:0 41:0 42:0 43:0 44:0 45:0.00296736 46:0.0148368 47:0.00890208 48:0 49:0 50:0.00593472 51:0 52:0 53:0 54:0 55:0.00296736 56:0 57:0 58:0 59:0.00890208 60:0 61:0 62:0.00593472 63:0 64:0.00890208 65:0 66:0.00296736 67:0 68:0.00296736 69:0.00296736 70:0 71:0 72:0 73:0 74:0 75:0 76:0.00296736 77:0.00296736 78:0.00296736 79:0.00296736 80:0 81:0 82:0 83:0 84:0 85:0.00296736 86:0.00593472 87:0.00593472 88:0.00296736 89:0.00296736 90:0 91:0.00296736 92:0 93:0.00593472 94:0.00296736 95:0 96:0 97:0 98:0.00296736 99:0 100:0 101:0 102:0.00296736 103:0.00296736 104:0 105:0 106:0 107:0 108:0 109:0 110:0 111:0 112:0.00296736 113:0 114:0.00593472 115:0.02077151 116:0 117:0 118:0 119:0.00296736 120:0.00890208 121:0 122:0 123:0.00296736 124:0.0148368 125:0 126:0.00890208 127:0 128:0.00296736 129:0 130:0.00593472 131:0.00296736 132:0.00890208 133:0 134:0 135:0.00593472 136:0.00296736 137:0 138:0 139:0.00296736 140:0 141:0.00593472 142:0 143:0 144:0.00593472 145:0.01186944 146:0.00296736 147:0.00296736 148:0.00593472 149:0.00296736 150:0.00593472 151:0 152:0 153:0 154:0 155:0 156:0.00890208 157:0 158:0 159:0.00296736 160:0 161:0.00296736 162:0.00296736 163:0 164:0.00296736 165:0.00296736 166:0 167:0.00296736 168:0.00593472 169:0 170:0.00296736 171:0.00593472 172:0 173:0 174:0 175:0 176:0 177:0 178:0.00296736 179:0 180:0 181:0.00296736 182:0.00593472 183:0.00593472 184:0.00296736 185:0.00593472 186:0.00296736 187:0.00296736 188:0.00296736 189:0 190:0.00296736 191:0 192:0.00296736 193:0 194:0.00296736 195:0.00890208 196:0.00296736 197:0.00296736 198:0.00296736 199:0.01186944 200:0.00296736 201:0 202:0.00296736 203:0 204:0.00296736 205:0 206:0.00593472 207:0.00296736 208:0 209:0.0148368 210:0.00296736 211:0 212:0.00593472 213:0 214:0.00593472 215:0.00593472 216:0 217:0.00890208 218:0 219:0 220:0.00296736 221:0.01780415 222:0.00296736 223:0.00296736 224:0 225:0.00890208 226:0.00593472 227:0 228:0 229:0.00296736 230:0.00593472 231:0.00296736 232:0 233:0 234:0 235:0.00296736 236:0.00296736 237:0 238:0.00296736 239:0 240:0.00296736 241:0.00593472 242:0.01780415 243:0.00296736 244:0 245:0 246:0.00296736 247:0 248:0.00890208 249:0 250:0 251:0 252:0 253:0.00296736 254:0.00296736 255:0 256:0 257:0.00296736 258:0.00890208 259:0.00890208 260:0.00593472 261:0 262:0.00593472 263:0 264:0.00296736 265:0.00296736 266:0 267:0 268:0 269:0 270:0.00890208 271:0 272:0 273:0.00296736 274:0.00296736 275:0 276:0.00296736 277:0.00296736 278:0 279:0.00296736 280:0 281:0.00296736 282:0.00296736 283:0.00593472 284:0 285:0 286:0 287:0.00296736 288:0 289:0.00890208 290:0 291:0 292:0 293:0.00296736 294:0 295:0.00296736 296:0.00296736 297:0.00593472 298:0.00296736 299:0 300:0 301:0.00296736 302:0 303:0.00296736 304:0.00593472 305:0.00296736 306:0 307:0.00593472 308:0.00296736 309:0.00296736 310:0 311:0.00296736 312:0 313:0.00296736 314:0.00296736 315:0.00296736 316:0.00296736 317:0.00593472 318:0.00296736 319:0 320:0.00296736 321:0.00296736 322:0.00296736 323:0 324:0.00593472 325:0.00296736 326:0 327:0.00593472 328:0 329:0.00296736 330:0 331:0.00296736 332:0.01186944 333:0.00296736 334:0.00296736 335:0 336:0 337:0 338:0 339:0.00296736 340:0 341:0 342:0 343:0.00296736 344:0 345:0.00890208 346:0 347:0.00593472 348:0 349:0 350:0 351:0 352:0 353:0.00593472 354:0.00296736 355:0 356:0.00593472 357:0 358:0 359:0 360:0 361:0.00296736 362:0.00593472 363:0.00593472 364:0 365:0.00296736 366:0.00593472 367:0.01186944 368:0.00890208 369:0.00296736 370:0 371:0.00593472 372:0 373:0 374:0.0148368 375:0 376:0.00296736 377:0 378:0.01780415 379:0.00296736 380:0 381:0 382:0 383:0.00296736 384:0 385:0 386:0 387:0.00890208 388:0 389:0.00296736 390:0.00296736 391:0 392:0.00296736 393:0 394:0 395:0 396:0 397:0.00593472 398:0 399:0.00296736 400:0.00296736 401:0.00593472 402:0 403:0 404:0.00296736 405:0.00890208 406:0 407:0.00593472 408:0.00593472 409:0.00593472 410:0.00296736 411:0 412:0 413:0 414:0 415:0 416:0.00296736 417:0.00296736 418:0.00593472 419:0 420:0 
2.447552053032077 1:0.02821317 2:0.00626959 3:0.04388715 4:0.05015674 5:0.02821317 6:0.0815047 7:0.00626959 8:0.07523511 9:0.05015674 10:0.05642633 11:0.01253918 12:0.07523511 13:0.06896552 14:0.01880878 15:0.04075235 16:0.09404389 17:0.13166144 18:0.07210031 19:0.01253918 20:0.04702194 21:0 22:0.00314465 23:0 24:0.00943396 25:0 26:0 27:0 28:0 29:0 30:0 31:0 32:0 33:0 34:0 35:0 36:0.00314465 37:0.00314465 38:0.00314465 39:0 40:0 41:0.00314465 42:0.00628931 43:0.00943396 44:0 45:0.00628931 46:0.01257862 47:0 48:0 49:0 50:0.00314465 51:0 52:0.00628931 53:0 54:0 55:0 56:0.00628931 57:0 58:0 59:0.00943396 60:0 61:0 62:0.00314465 63:0 64:0 65:0 66:0.00314465 67:0 68:0 69:0 70:0 71:0.00314465 72:0 73:0 74:0 75:0 76:0 77:0 78:0.00628931 79:0 80:0.00314465 81:0 82:0 83:0 84:0 85:0.00314465 86:0 87:0.00628931 88:0.00314465 89:0.00314465 90:0 91:0 92:0.00314465 93:0.00314465 94:0 95:0.00314465 96:0.00628931 97:0 98:0.00628931 99:0 100:0.00314465 101:0 102:0.00943396 103:0 104:0 105:0 106:0 107:0 108:0 109:0 110:0 111:0.00314465 112:0.00314465 113:0.00314465 114:0.01257862 115:0.00943396 116:0.00943396 117:0.00314465 118:0 119:0.00314465 120:0.00628931 121:0 122:0 123:0.00314465 124:0.01257862 125:0 126:0.00943396 127:0 128:0 129:0 130:0.00314465 131:0.00628931 132:0.00628931 133:0 134:0 135:0.00314465 136:0 137:0 138:0 139:0 140:0.00314465 141:0 142:0.00628931 143:0 144:0 145:0.00943396 146:0.00314465 147:0.00628931 148:0 149:0.00628931 150:0.00628931 151:0 152:0 153:0 154:0.00314465 155:0.00314465 156:0.00314465 157:0 158:0 159:0 160:0.00943396 161:0.00314465 162:0.00628931 163:0 164:0.00314465 165:0.00628931 166:0 167:0.00628931 168:0 169:0 170:0 171:0.00628931 172:0 173:0.00314465 174:0.00628931 175:0 176:0 177:0 178:0 179:0 180:0.00314465 181:0.00314465 182:0 183:0 184:0.00943396 185:0.00314465 186:0 187:0 188:0.00628931 189:0.00314465 190:0 191:0.00628931 192:0 193:0 194:0 195:0.00314465 196:0.00943396 197:0.00314465 198:0.00628931 199:0.00628931 200:0 201:0 202:0 203:0.00943396 204:0 205:0.00314465 206:0 207:0.00314465 208:0.00628931 209:0.01257862 210:0 211:0 212:0 213:0 214:0.00314465 215:0.00943396 216:0.00314465 217:0.00628931 218:0 219:0 220:0 221:0.01886792 222:0 223:0.00628931 224:0.00628931 225:0 226:0 227:0 228:0 229:0.00314465 230:0.00628931 231:0.00628931 232:0 233:0.00314465 234:0 235:0 236:0.00314465 237:0.00314465 238:0.00628931 239:0 240:0 241:0.00314465 242:0.00943396 243:0.00314465 244:0 245:0.00314465 246:0 247:0 248:0.00314465 249:0 250:0.00314465 251:0 252:0 253:0.01257862 254:0 255:0.00314465 256:0 257:0.00628931 258:0.00628931 259:0.00314465 260:0.00943396 261:0.00314465 262:0 263:0 264:0.00943396 265:0.00314465 266:0.00314465 267:0 268:0 269:0.00314465 270:0.00314465 271:0.00314465 272:0 273:0 274:0 275:0 276:0.00314465 277:0.00314465 278:0.00314465 279:0.00314465 280:0.01257862 281:0.00314465 282:0.00314465 283:0 284:0 285:0 286:0 287:0.00314465 288:0 289:0.00628931 290:0 291:0 292:0 293:0.00314465 294:0 295:0.00943396 296:0.00314465 297:0.00628931 298:0.00943396 299:0 300:0 301:0.00628931 302:0 303:0 304:0.01257862 305:0.00314465 306:0 307:0.00943396 308:0.00314465 309:0 310:0 311:0.00628931 312:0 313:0.00628931 314:0 315:0.00314465 316:0.00628931 317:0.00314465 318:0 319:0 320:0 321:0 322:0 323:0 324:0.00628931 325:0.00628931 326:0 327:0 328:0.00314465 329:0.00314465 330:0 331:0.00314465 332:0.00628931 333:0.01257862 334:0.00628931 335:0 336:0 337:0 338:0 339:0 340:0.00314465 341:0 342:0.00314465 343:0 344:0 345:0.00314465 346:0.00314465 347:0.00314465 348:0 349:0.00314465 350:0 351:0 352:0 353:0.00314465 354:0.00943396 355:0 356:0 357:0 358:0.00314465 359:0 360:0 361:0.00314465 362:0 363:0.00314465 364:0.00314465 365:0 366:0 367:0.00943396 368:0 369:0 370:0 371:0.00314465 372:0 373:0 374:0.00628931 375:0.00628931 376:0 377:0 378:0.00628931 379:0.00314465 380:0.00628931 381:0.00314465 382:0 383:0 384:0 385:0 386:0 387:0.00943396 388:0.00628931 389:0 390:0.00628931 391:0.00628931 392:0 393:0.00314465 394:0.00314465 395:0.00628931 396:0.00314465 397:0.00314465 398:0.00314465 399:0 400:0 401:0.00314465 402:0 403:0 404:0.00314465 405:0.00314465 406:0 407:0 408:0.00943396 409:0.00314465 410:0 411:0 412:0 413:0.00628931 414:0 415:0 416:0 417:0.00628931 418:0.00628931 419:0 420:0 
4.270033881626998 1:0.04950495 2:0 3:0.04620462 4:0.05610561 5:0.03960396 6:0.06930693 7:0.01320132 8:0.08580858 9:0.05940594 10:0.07260726 11:0.01980198 12:0.06270627 13:0.03630363 14:0.02970297 15:0.0330033 16:0.09240924 17:0.10231023 18:0.06270627 19:0.01320132 20:0.05610561 21:0 22:0 23:0 24:0.00662252 25:0 26:0.00331126 27:0 28:0 29:0 30:0 31:0 32:0.00331126 33:0.00662252 34:0 35:0 36:0.00662252 37:0 38:0.00662252 39:0 40:0 41:0.00662252 42:0 43:0.00331126 44:0 45:0.00331126 46:0.00662252 47:0 48:0 49:0 50:0.00331126 51:0 52:0.00662252 53:0 54:0 55:0 56:0 57:0 58:0 59:0.00331126 60:0 61:0 62:0.00331126 63:0 64:0 65:0.00331126 66:0.00331126 67:0 68:0 69:0 70:0.00331126 71:0 72:0.00993377 73:0.00331126 74:0.00331126 75:0 76:0 77:0 78:0.00331126 79:0.00331126 80:0.00331126 81:0 82:0 83:0 84:0 85:0 86:0.00331126 87:0.00331126 88:0.00993377 89:0.00993377 90:0.00331126 91:0 92:0.00331126 93:0 94:0 95:0 96:0.00331126 97:0 98:0.00331126 99:0 100:0 101:0 102:0.00662252 103:0 104:0.00662252 105:0.00993377 106:0.00331126 107:0 108:0.00331126 109:0.00662252 110:0.00331126 111:0 112:0.00662252 113:0.00331126 114:0 115:0.00993377 116:0.00993377 117:0 118:0 119:0.00662252 120:0.00993377 121:0 122:0 123:0 124:0.00993377 125:0 126:0.00331126 127:0 128:0 129:0 130:0 131:0.00331126 132:0.00331126 133:0.00331126 134:0 135:0.00993377 136:0 137:0 138:0 139:0 140:0 141:0.00331126 142:0 143:0 144:0 145:0.00331126 146:0.00331126 147:0.00662252 148:0 149:0.00331126 150:0.00662252 151:0 152:0 153:0 154:0 155:0.00331126 156:0 157:0 158:0.00331126 159:0.00331126 160:0.01324503 161:0.00662252 162:0 163:0 164:0.01655629 165:0 166:0 167:0.00331126 168:0 169:0 170:0 171:0.00662252 172:0 173:0 174:0.00993377 175:0 176:0 177:0 178:0 179:0 180:0.00331126 181:0 182:0.00662252 183:0.00331126 184:0.00331126 185:0.00331126 186:0 187:0 188:0.00331126 189:0.00993377 190:0 191:0.00662252 192:0 193:0 194:0 195:0.00662252 196:0.00331126 197:0.00331126 198:0.00993377 199:0.00662252 200:0 201:0 202:0.00331126 203:0.00662252 204:0 205:0.00993377 206:0 207:0 208:0.00662252 209:0.00662252 210:0.00331126 211:0.00331126 212:0.00331126 213:0 214:0.00993377 215:0.01324503 216:0.00331126 217:0 218:0 219:0 220:0.00331126 221:0.00993377 222:0 223:0.00662252 224:0.00331126 225:0.00331126 226:0.00993377 227:0 228:0 229:0.00331126 230:0.00662252 231:0.00662252 232:0.00331126 233:0 234:0 235:0.00662252 236:0 237:0.00331126 238:0.00662252 239:0 240:0 241:0.00662252 242:0.00993377 243:0 244:0 245:0.00331126 246:0 247:0 248:0.01324503 249:0 250:0 251:0 252:0 253:0.00662252 254:0.00662252 255:0 256:0 257:0 258:0.00331126 259:0.00662252 260:0.00662252 261:0 262:0 263:0 264:0 265:0 266:0 267:0 268:0 269:0 270:0 271:0.00331126 272:0 273:0 274:0.00662252 275:0 276:0.00662252 277:0.00331126 278:0.00662252 279:0 280:0 281:0 282:0.01655629 283:0.00662252 284:0.00331126 285:0.00331126 286:0 287:0.00662252 288:0 289:0 290:0 291:0 292:0 293:0.00331126 294:0 295:0.00662252 296:0.00662252 297:0.00331126 298:0.00331126 299:0.00662252 300:0 301:0.00993377 302:0.00662252 303:0 304:0.00331126 305:0.00331126 306:0 307:0 308:0.00993377 309:0 310:0 311:0 312:0.00662252 313:0.00662252 314:0 315:0 316:0 317:0 318:0 319:0 320:0.00331126 321:0.00331126 322:0 323:0 324:0.00331126 325:0 326:0 327:0 328:0.00331126 329:0.00662252 330:0 331:0 332:0.00993377 333:0.00331126 334:0.00662252 335:0.00331126 336:0 337:0 338:0 339:0 340:0 341:0.00331126 342:0.00331126 343:0 344:0.00331126 345:0 346:0.00331126 347:0.00331126 348:0 349:0.00331126 350:0.00331126 351:0 352:0 353:0.00331126 354:0.00331126 355:0 356:0 357:0 358:0 359:0 360:0 361:0 362:0 363:0 364:0 365:0 366:0 367:0.01324503 368:0 369:0.00331126 370:0 371:0.00331126 372:0 373:0 374:0.00662252 375:0.00331126 376:0.00331126 377:0 378:0.00993377 379:0 380:0.00331126 381:0.00993377 382:0 383:0 384:0 385:0 386:0 387:0.00331126 388:0.00662252 389:0.00662252 390:0 391:0.00993377 392:0 393:0.00331126 394:0.00331126 395:0 396:0.00662252 397:0.00662252 398:0.00331126 399:0 400:0 401:0.01324503 402:0.00331126 403:0 404:0.00331126 405:0 406:0 407:0.00331126 408:0.00331126 409:0 410:0.00331126 411:0.00331126 412:0 413:0.00331126 414:0.00331126 415:0 416:0.00331126 417:0.00331126 418:0.00331126 419:0 420:0 
2.393311136936177 1:0.0530303 2:0.00757576 3:0.06060606 4:0.06060606 5:0.01515152 6:0.06818182 7:0.06060606 8:0.09848485 9:0.03030303 10:0.04545455 11:0.01515152 12:0.09848485 13:0.02272727 14:0.02272727 15:0.06060606 16:0.08333333 17:0.08333333 18:0.06060606 19:0.00757576 20:0.04545455 21:0.01526718 22:0 23:0 24:0.02290076 25:0 26:0 27:0 28:0 29:0 30:0 31:0 32:0 33:0 34:0 35:0 36:0 37:0 38:0 39:0 40:0 41:0 42:0 43:0 44:0 45:0 46:0.00763359 47:0 48:0 49:0 50:0.00763359 51:0 52:0 53:0 54:0 55:0 56:0 57:0 58:0 59:0 60:0.00763359 61:0 62:0.00763359 63:0 64:0 65:0.00763359 66:0 67:0 68:0 69:0 70:0.00763359 71:0 72:0.00763359 73:0.00763359 74:0.00763359 75:0 76:0 77:0 78:0 79:0.00763359 80:0 81:0 82:0 83:0 84:0 85:0 86:0.00763359 87:0 88:0 89:0 90:0 91:0 92:0.00763359 93:0 94:0 95:0 96:0 97:0.00763359 98:0 99:0 100:0 101:0 102:0 103:0 104:0 105:0 106:0 107:0 108:0 109:0 110:0.00763359 111:0 112:0.00763359 113:0 114:0.00763359 115:0.00763359 116:0.01526718 117:0 118:0 119:0 120:0 121:0 122:0 123:0.01526718 124:0 125:0 126:0.01526718 127:0 128:0 129:0.00763359 130:0 131:0.00763359 132:0 133:0.00763359 134:0 135:0 136:0 137:0 138:0.01526718 139:0 140:0 141:0 142:0 143:0.00763359 144:0.00763359 145:0 146:0 147:0 148:0.00763359 149:0 150:0.02290076 151:0 152:0 153:0 154:0 155:0.00763359 156:0 157:0.01526718 158:0.00763359 159:0 160:0 161:0 162:0 163:0 164:0.00763359 165:0 166:0 167:0 168:0 169:0.00763359 170:0 171:0 172:0 173:0.00763359 174:0 175:0 176:0 177:0 178:0 179:0 180:0 181:0.00763359 182:0 183:0 184:0.02290076 185:0.00763359 186:0 187:0 188:0.00763359 189:0 190:0 191:0 192:0.00763359 193:0 194:0 195:0 196:0 197:0 198:0 199:0 200:0.00763359 201:0 202:0 203:0.00763359 204:0 205:0 206:0 207:0 208:0 209:0 210:0 211:0 212:0 213:0.00763359 214:0.00763359 215:0.00763359 216:0 217:0 218:0.00763359 219:0 220:0.00763359 221:0 222:0 223:0 224:0 225:0 226:0 227:0 228:0 229:0 230:0 231:0 232:0 233:0 234:0 235:0.00763359 236:0 237:0 238:0.00763359 239:0.00763359 240:0 241:0 242:0.02290076 243:0.00763359 244:0 245:0.00763359 246:0 247:0 248:0.00763359 249:0 250:0.00763359 251:0 252:0 253:0 254:0 255:0 256:0 257:0.00763359 258:0.00763359 259:0 260:0.00763359 261:0 262:0.00763359 263:0 264:0 265:0 266:0 267:0 268:0 269:0 270:0.00763359 271:0 272:0 273:0 274:0 275:0.00763359 276:0.00763359 277:0.00763359 278:0 279:0 280:0.00763359 281:0 282:0.00763359 283:0 284:0 285:0.00763359 286:0 287:0 288:0 289:0 290:0 291:0 292:0.01526718 293:0 294:0 295:0.01526718 296:0 297:0 298:0.00763359 299:0 300:0 301:0 302:0.00763359 303:0.00763359 304:0.01526718 305:0 306:0 307:0 308:0 309:0 310:0 311:0.00763359 312:0 313:0.00763359 314:0 315:0.01526718 316:0 317:0.01526718 318:0.00763359 319:0 320:0.00763359 321:0.00763359 322:0 323:0 324:0 325:0 326:0 327:0 328:0 329:0.01526718 330:0 331:0 332:0.01526718 333:0.00763359 334:0 335:0 336:0 337:0 338:0 339:0 340:0 341:0 342:0 343:0 344:0 345:0 346:0.00763359 347:0 348:0 349:0 350:0 351:0 352:0 353:0 354:0.01526718 355:0 356:0 357:0 358:0.00763359 359:0.00763359 360:0.00763359 361:0 362:0 363:0 364:0 365:0 366:0 367:0.00763359 368:0 369:0 370:0 371:0 372:0 373:0 374:0 375:0.00763359 376:0.00763359 377:0.00763359 378:0.00763359 379:0 380:0 381:0 382:0.00763359 383:0 384:0 385:0 386:0 387:0.01526718 388:0.00763359 389:0 390:0 391:0.00763359 392:0 393:0 394:0.01526718 395:0 396:0 397:0 398:0 399:0 400:0 401:0 402:0 403:0 404:0.00763359 405:0.02290076 406:0 407:0 408:0 409:0 410:0 411:0 412:0 413:0.02290076 414:0 415:0 416:0 417:0 418:0 419:0 420:0 
3.720909201231533 1:0.04965753 2:0.00770548 3:0.0625 4:0.06335616 5:0.04623288 6:0.05136986 7:0.02568493 8:0.06164384 9:0.05479452 10:0.08561644 11:0.01626712 12:0.07363014 13:0.04537671 14:0.0625 15:0.02739726 16:0.08047945 17:0.0744863 18:0.06592466 19:0.01113014 20:0.03424658 21:0.0017138 22:0.00428449 23:0.0017138 24:0.0017138 25:0 26:0.00257069 27:0.0017138 28:0.0017138 29:0 30:0.0008569 31:0 32:0.00257069 33:0.00428449 34:0.00342759 35:0 36:0.00771208 37:0.00257069 38:0.0017138 39:0 40:0.0008569 41:0.0017138 42:0 43:0.00257069 44:0 45:0.00342759 46:0.00514139 47:0.0008569 48:0.00514139 49:0.0008569 50:0 51:0.0008569 52:0.00685518 53:0.00428449 54:0.0008569 55:0.0017138 56:0.0008569 57:0.0008569 58:0 59:0.00514139 60:0.00257069 61:0.0008569 62:0.00257069 63:0 64:0.00257069 65:0.0008569 66:0 67:0 68:0.00257069 69:0.00428449 70:0.00257069 71:0 72:0.00342759 73:0.00257069 74:0.0017138 75:0.0008569 76:0.0008569 77:0.0008569 78:0.0017138 79:0.00771208 80:0.0008569 81:0.0008569 82:0 83:0.00257069 84:0.00342759 85:0.00342759 86:0.00342759 87:0.00257069 88:0 89:0.00685518 90:0.0017138 91:0.00257069 92:0.00771208 93:0 94:0.00514139 95:0 96:0.00599829 97:0.0008569 98:0.0008569 99:0 100:0.00599829 101:0.0008569 102:0.00771208 103:0.0008569 104:0.00428449 105:0.00428449 106:0.0008569 107:0.00342759 108:0.00428449 109:0.00428449 110:0.0008569 111:0.00342759 112:0.00428449 113:0.00428449 114:0.00257069 115:0.00771208 116:0.00856898 117:0.00685518 118:0 119:0.00342759 120:0.00257069 121:0 122:0 123:0.00428449 124:0.00514139 125:0.0017138 126:0.00342759 127:0.00257069 128:0 129:0.00257069 130:0.00257069 131:0.0008569 132:0.0017138 133:0.00342759 134:0 135:0.00514139 136:0.00514139 137:0 138:0.0008569 139:0 140:0.00342759 141:0.0017138 142:0.00685518 143:0 144:0.00514139 145:0.00514139 146:0.00257069 147:0.00257069 148:0.00257069 149:0.00257069 150:0.00342759 151:0 152:0 153:0 154:0 155:0.0008569 156:0.00428449 157:0.00257069 158:0.0017138 159:0.00342759 160:0.0017138 161:0.0008569 162:0.0008569 163:0.0017138 164:0.00257069 165:0.00428449 166:0 167:0.0017138 168:0 169:0.00257069 170:0.0017138 171:0.00342759 172:0.0008569 173:0.0008569 174:0.00428449 175:0.0008569 176:0 177:0 178:0.0008569 179:0 180:0.00342759 181:0.00342759 182:0.00599829 183:0.00942588 184:0.00771208 185:0.0008569 186:0 187:0.00342759 188:0.0017138 189:0.00771208 190:0 191:0.00599829 192:0.0017138 193:0.0017138 194:0.00257069 195:0.00599829 196:0.00342759 197:0.00257069 198:0.00514139 199:0.00342759 200:0 201:0.0008569 202:0.00428449 203:0.00428449 204:0.00342759 205:0.00257069 206:0 207:0.00257069 208:0.00257069 209:0.0017138 210:0.00599829 211:0.00342759 212:0.00342759 213:0.00257069 214:0.00856898 215:0.00257069 216:0.0017138 217:0.00257069 218:0.00257069 219:0.0008569 220:0.0017138 221:0.00771208 222:0.0008569 223:0.0017138 224:0.00342759 225:0.00257069 226:0.00342759 227:0.0017138 228:0.0017138 229:0.00428449 230:0.0017138 231:0.00428449 232:0.00428449 233:0.0008569 234:0 235:0.0017138 236:0.00428449 237:0.0008569 238:0.00428449 239:0 240:0 241:0.0008569 242:0.00257069 243:0.00257069 244:0 245:0.0017138 246:0 247:0 248:0.00599829 249:0.0008569 250:0.00342759 251:0 252:0.0008569 253:0.00771208 254:0.0017138 255:0 256:0.0017138 257:0.00514139 258:0.0008569 259:0.00599829 260:0.00257069 261:0.00342759 262:0.00514139 263:0.0008569 264:0.00771208 265:0.00428449 266:0 267:0 268:0 269:0 270:0.00257069 271:0.00342759 272:0.0017138 273:0.0008569 274:0.00257069 275:0.00257069 276:0.0008569 277:0.00342759 278:0.00685518 279:0.0017138 280:0.00342759 281:0.00428449 282:0.00257069 283:0.00342759 284:0.00257069 285:0.0008569 286:0 287:0.0008569 288:0.0008569 289:0.0017138 290:0.0008569 291:0 292:0.0008569 293:0.0017138 294:0.0008569 295:0.00342759 296:0.0017138 297:0.0017138 298:0.00856898 299:0.0008569 300:0 301:0.00257069 302:0.0017138 303:0.00257069 304:0.00257069 305:0.0017138 306:0 307:0.00599829 308:0.00428449 309:0.00514139 310:0.0017138 311:0.00257069 312:0 313:0.0017138 314:0.0017138 315:0.00685518 316:0.00257069 317:0.0017138 318:0.0017138 319:0.0017138 320:0.0008569 321:0.00257069 322:0 323:0.00342759 324:0.0008569 325:0.00685518 326:0.00342759 327:0.00257069 328:0.0017138 329:0.0008569 330:0.00514139 331:0.0008569 332:0.00771208 333:0.00257069 334:0.00342759 335:0.0017138 336:0.00257069 337:0 338:0 339:0.0017138 340:0 341:0.0017138 342:0 343:0 344:0 345:0.00342759 346:0.00342759 347:0.00685518 348:0.0008569 349:0.0008569 350:0.0008569 351:0 352:0.0017138 353:0.00856898 354:0.00685518 355:0.0017138 356:0.00514139 357:0.0008569 358:0.0017138 359:0.0017138 360:0.0017138 361:0.00514139 362:0.00428449 363:0.00514139 364:0 365:0 366:0.0017138 367:0.00342759 368:0.00342759 369:0.0017138 370:0.0017138 371:0.00257069 372:0 373:0.00257069 374:0.00257069 375:0.00514139 376:0.00599829 377:0.0017138 378:0.00514139 379:0.0017138 380:0.0017138 381:0.0017138 382:0 383:0.00257069 384:0 385:0.00342759 386:0.0008569 387:0.00856898 388:0.00257069 389:0.00257069 390:0.0017138 391:0.00342759 392:0.0008569 393:0.0008569 394:0.00856898 395:0.00514139 396:0.0008569 397:0.00342759 398:0.00342759 399:0.0017138 400:0.0008569 401:0.00685518 402:0.0017138 403:0 404:0.00257069 405:0.00428449 406:0.0008569 407:0.00514139 408:0.00342759 409:0.0017138 410:0.00257069 411:0.00257069 412:0.0017138 413:0.00428449 414:0.00342759 415:0.00428449 416:0.00428449 417:0 418:0.00342759 419:0.0017138 420:0 
3.607797342574214 1:0.05531547 2:0.00950735 3:0.05272256 4:0.06828003 5:0.04321521 6:0.06395851 7:0.00950735 8:0.05358686 9:0.05704408 10:0.1019879 11:0.01296456 12:0.05877269 13:0.03889369 14:0.03716508 15:0.03802939 16:0.07692308 17:0.08038029 18:0.07260156 19:0.01555748 20:0.05358686 21:0.00519031 22:0.00432526 23:0.00086505 24:0.00346021 25:0 26:0.0017301 27:0 28:0 29:0.0017301 30:0 31:0.00086505 32:0.0017301 33:0.0017301 34:0.00346021 35:0 36:0.00519031 37:0.0017301 38:0.00086505 39:0.0017301 40:0.00086505 41:0.00346021 42:0.00086505 43:0.00865052 44:0 45:0.00432526 46:0.00346021 47:0.0017301 48:0.00692042 49:0 50:0.00432526 51:0.00086505 52:0.0017301 53:0.00346021 54:0 55:0.0017301 56:0.00692042 57:0 58:0 59:0.0017301 60:0 61:0 62:0.00086505 63:0.00086505 64:0.00692042 65:0.0017301 66:0.00086505 67:0 68:0.00519031 69:0.00692042 70:0.00346021 71:0.00086505 72:0.00432526 73:0 74:0.00346021 75:0 76:0.00086505 77:0 78:0.00086505 79:0.00692042 80:0.00086505 81:0 82:0.00086505 83:0.00259516 84:0 85:0.00778547 86:0.00346021 87:0.00346021 88:0.00346021 89:0.00346021 90:0.0017301 91:0.00086505 92:0.00346021 93:0 94:0.00346021 95:0.00346021 96:0.00692042 97:0 98:0.00346021 99:0 100:0.00346021 101:0.00086505 102:0.00086505 103:0.0017301 104:0.00432526 105:0.00259516 106:0 107:0.00086505 108:0.00259516 109:0.00086505 110:0.00259516 111:0.00432526 112:0.00432526 113:0.00605536 114:0.00346021 115:0.0017301 116:0.00519031 117:0.0017301 118:0 119:0.00346021 120:0.00259516 121:0.00086505 122:0 123:0.00346021 124:0.0017301 125:0.00086505 126:0.00865052 127:0.00346021 128:0 129:0.0017301 130:0.0017301 131:0.0017301 132:0.00086505 133:0.00346021 134:0.00259516 135:0.00346021 136:0.0017301 137:0.00086505 138:0 139:0 140:0.0017301 141:0 142:0.00346021 143:0.00086505 144:0.00346021 145:0.00605536 146:0.0017301 147:0.00259516 148:0.00346021 149:0.0017301 150:0.00259516 151:0.0017301 152:0.0017301 153:0 154:0 155:0.00346021 156:0.00259516 157:0.00259516 158:0 159:0.0017301 160:0.00259516 161:0.00346021 162:0.0017301 163:0.00086505 164:0.00259516 165:0.00432526 166:0.0017301 167:0.00259516 168:0 169:0.0017301 170:0.00259516 171:0.00346021 172:0 173:0 174:0.00346021 175:0 176:0 177:0.0017301 178:0 179:0 180:0.00259516 181:0.00605536 182:0.00259516 183:0.00346021 184:0.00605536 185:0.00086505 186:0 187:0.00086505 188:0.00086505 189:0.00259516 190:0 191:0.00432526 192:0.00086505 193:0.00259516 194:0.0017301 195:0.01038062 196:0.00692042 197:0 198:0.00605536 199:0.00519031 200:0 201:0.0017301 202:0.00259516 203:0 204:0 205:0.00346021 206:0 207:0.00432526 208:0.00432526 209:0.00519031 210:0.00692042 211:0.00259516 212:0.00086505 213:0.00346021 214:0.00692042 215:0.00778547 216:0.00086505 217:0.0017301 218:0 219:0.00086505 220:0.00086505 221:0.0017301 222:0.00259516 223:0.00086505 224:0.00259516 225:0.00519031 226:0.00346021 227:0.00259516 228:0.00086505 229:0.00778547 230:0.00259516 231:0.00605536 232:0.00605536 233:0.0017301 234:0 235:0.00432526 236:0.00605536 237:0.00259516 238:0.0017301 239:0.00086505 240:0.00086505 241:0.00346021 242:0.00432526 243:0.00259516 244:0 245:0.00432526 246:0.00259516 247:0.00086505 248:0.00519031 249:0.00259516 250:0.00519031 251:0 252:0 253:0.00865052 254:0.00259516 255:0.0017301 256:0 257:0.01038062 258:0.00259516 259:0.00951557 260:0.00259516 261:0.00259516 262:0.00692042 263:0 264:0.00605536 265:0.0017301 266:0.00086505 267:0.00086505 268:0 269:0.00086505 270:0.0017301 271:0.00259516 272:0.00086505 273:0.00259516 274:0.0017301 275:0.00692042 276:0.00346021 277:0.00605536 278:0.00086505 279:0 280:0.00346021 281:0.00778547 282:0.00778547 283:0.00605536 284:0.00259516 285:0 286:0 287:0.00346021 288:0 289:0.00432526 290:0.0017301 291:0 292:0.0017301 293:0.00259516 294:0 295:0.00692042 296:0.00259516 297:0.00086505 298:0.00519031 299:0.00346021 300:0.00086505 301:0.00432526 302:0.00432526 303:0 304:0.00519031 305:0.0017301 306:0 307:0.00519031 308:0.00432526 309:0.00259516 310:0.0017301 311:0.00519031 312:0.00086505 313:0.00346021 314:0 315:0.00346021 316:0.00086505 317:0.00259516 318:0 319:0.00086505 320:0.00346021 321:0.0017301 322:0 323:0 324:0.00432526 325:0.00346021 326:0.00432526 327:0.00259516 328:0.00086505 329:0.00086505 330:0.00259516 331:0 332:0.00951557 333:0.00432526 334:0.00432526 335:0 336:0 337:0 338:0 339:0.00086505 340:0.00086505 341:0 342:0 343:0 344:0.00432526 345:0.00432526 346:0.00865052 347:0.00346021 348:0 349:0.00346021 350:0.00086505 351:0 352:0.00086505 353:0.00951557 354:0.00259516 355:0 356:0.00259516 357:0.00086505 358:0.00692042 359:0.0017301 360:0.00086505 361:0.00519031 362:0.0017301 363:0.00605536 364:0.00086505 365:0.00259516 366:0.00346021 367:0.00865052 368:0.00432526 369:0.00519031 370:0 371:0.00259516 372:0.00086505 373:0.00086505 374:0.00692042 375:0.00346021 376:0.00432526 377:0 378:0.00519031 379:0.00346021 380:0.00432526 381:0.00432526 382:0 383:0.00086505 384:0 385:0.00259516 386:0.00086505 387:0.00605536 388:0.0017301 389:0.00346021 390:0.00259516 391:0.00519031 392:0 393:0.00086505 394:0.00605536 395:0.0017301 396:0.0017301 397:0.00086505 398:0.0017301 399:0 400:0.0017301 401:0.00432526 402:0.00259516 403:0 404:0.0017301 405:0.00346021 406:0.0017301 407:0.0017301 408:0.00346021 409:0.0017301 410:0.00086505 411:0 412:0.0017301 413:0.0017301 414:0.00432526 415:0.00432526 416:0 417:0.0017301 418:0.00692042 419:0 420:0 
0.1419556544157168 1:0.06382979 2:0.00886525 3:0.06205674 4:0.06737589 5:0.04698582 6:0.05319149 7:0.02216312 8:0.06914894 9:0.05407801 10:0.1001773 11:0.0106383 12:0.07624113 13:0.03723404 14:0.04078014 15:0.03457447 16:0.06648936 17:0.07003546 18:0.05939716 19:0.0106383 20:0.04609929 21:0.00621118 22:0.00443656 23:0 24:0.00532387 25:0.00088731 26:0.00354925 27:0.00177462 28:0.00266193 29:0 30:0.00088731 31:0 32:0.00088731 33:0.00354925 34:0.00532387 35:0.00088731 36:0.00621118 37:0.00088731 38:0.00088731 39:0.00088731 40:0 41:0.00443656 42:0.00088731 43:0.00266193 44:0 45:0.00354925 46:0.00532387 47:0.00088731 48:0.00443656 49:0.00177462 50:0.00266193 51:0 52:0.00354925 53:0.00621118 54:0.00266193 55:0.00088731 56:0.00266193 57:0 58:0 59:0.00621118 60:0.00177462 61:0 62:0.00088731 63:0 64:0.00532387 65:0.00177462 66:0.00266193 67:0 68:0.00266193 69:0.0079858 70:0.00266193 71:0.00177462 72:0.00177462 73:0 74:0.00266193 75:0 76:0.00177462 77:0 78:0.00177462 79:0.00887311 80:0.00088731 81:0.00177462 82:0 83:0.00443656 84:0.00266193 85:0.00976043 86:0.00177462 87:0.00443656 88:0.00354925 89:0.00354925 90:0.00266193 91:0.00177462 92:0.00443656 93:0.00088731 94:0.00443656 95:0 96:0.00532387 97:0 98:0.00088731 99:0 100:0.0079858 101:0.00177462 102:0.00266193 103:0 104:0.0079858 105:0.00088731 106:0.00266193 107:0.00354925 108:0.00532387 109:0.00177462 110:0.00266193 111:0.00088731 112:0.00443656 113:0.00354925 114:0.00266193 115:0.00177462 116:0.00532387 117:0.00266193 118:0 119:0.00443656 120:0.00177462 121:0.00088731 122:0 123:0.00177462 124:0.00266193 125:0.00266193 126:0.00354925 127:0.00532387 128:0.00177462 129:0 130:0.00443656 131:0.00354925 132:0 133:0.00088731 134:0 135:0.00443656 136:0.00532387 137:0.00088731 138:0.00177462 139:0 140:0.00443656 141:0 142:0.00266193 143:0 144:0.00266193 145:0.00266193 146:0.00088731 147:0.00532387 148:0.00532387 149:0.00266193 150:0.00621118 151:0.00088731 152:0.00088731 153:0 154:0.00177462 155:0.00088731 156:0.00088731 157:0.00354925 158:0.00177462 159:0.00177462 160:0.00177462 161:0.00443656 162:0.00177462 163:0 164:0.00621118 165:0.00266193 166:0.00088731 167:0.00354925 168:0 169:0 170:0.00354925 171:0.00266193 172:0.00177462 173:0 174:0.00887311 175:0.00088731 176:0.00088731 177:0.00088731 178:0 179:0 180:0.00443656 181:0.00532387 182:0.00266193 183:0.00532387 184:0.00354925 185:0 186:0 187:0.00266193 188:0.00088731 189:0.00887311 190:0 191:0.00266193 192:0 193:0.00177462 194:0.00088731 195:0.00443656 196:0.00443656 197:0.00354925 198:0.00532387 199:0.00443656 200:0 201:0.00088731 202:0.00266193 203:0.00088731 204:0.00443656 205:0.00266193 206:0.00088731 207:0.00354925 208:0.00621118 209:0.00532387 210:0.00709849 211:0.00266193 212:0.00177462 213:0.00443656 214:0.00443656 215:0.00443656 216:0.00088731 217:0.00443656 218:0.00177462 219:0 220:0.00088731 221:0.00621118 222:0.00088731 223:0.00266193 224:0.00177462 225:0.00177462 226:0.00266193 227:0.00088731 228:0 229:0.00443656 230:0.00621118 231:0.00709849 232:0.00532387 233:0.00088731 234:0 235:0.00443656 236:0.0079858 237:0.00088731 238:0 239:0 240:0.00177462 241:0.00177462 242:0.00266193 243:0.00443656 244:0.00088731 245:0.00088731 246:0.00266193 247:0.00088731 248:0.00354925 249:0.00088731 250:0.00532387 251:0 252:0 253:0.00976043 254:0.00088731 255:0.00088731 256:0.00088731 257:0.00532387 258:0.00532387 259:0.01242236 260:0.00088731 261:0.00266193 262:0.00177462 263:0.00088731 264:0.00266193 265:0.00088731 266:0.00088731 267:0.00177462 268:0 269:0.00177462 270:0.00354925 271:0.00354925 272:0.00088731 273:0 274:0.00266193 275:0.00266193 276:0.00088731 277:0.00443656 278:0.00621118 279:0.00177462 280:0.00177462 281:0.00532387 282:0.00532387 283:0.00621118 284:0.00177462 285:0 286:0 287:0.00354925 288:0 289:0.00354925 290:0.00177462 291:0 292:0.00177462 293:0.00443656 294:0.00177462 295:0.00177462 296:0.00177462 297:0.00177462 298:0.00621118 299:0.00266193 300:0.00088731 301:0.00266193 302:0.00266193 303:0.00177462 304:0.00443656 305:0.00266193 306:0 307:0.00443656 308:0.00443656 309:0.00354925 310:0 311:0.00177462 312:0 313:0.00443656 314:0 315:0.00621118 316:0.00266193 317:0.00354925 318:0.00088731 319:0 320:0 321:0.00266193 322:0 323:0.00177462 324:0.00088731 325:0.00088731 326:0.00177462 327:0.00266193 328:0 329:0.00088731 330:0.00443656 331:0.00177462 332:0.00621118 333:0.00088731 334:0.00443656 335:0.00088731 336:0 337:0.00088731 338:0.00088731 339:0.00088731 340:0.00088731 341:0 342:0.00177462 343:0 344:0.00354925 345:0.00266193 346:0.00443656 347:0.00709849 348:0 349:0.00177462 350:0.00177462 351:0 352:0 353:0.00443656 354:0.00621118 355:0 356:0.00266193 357:0.00266193 358:0.00354925 359:0.00177462 360:0.00177462 361:0.00443656 362:0 363:0.00443656 364:0.00088731 365:0.00177462 366:0.00088731 367:0.00621118 368:0.00266193 369:0.00266193 370:0 371:0.00532387 372:0 373:0.00088731 374:0.00266193 375:0.00443656 376:0.00976043 377:0.00443656 378:0.00621118 379:0.00443656 380:0.00354925 381:0.00443656 382:0.00088731 383:0.00177462 384:0 385:0.00177462 386:0.00177462 387:0.00621118 388:0.00354925 389:0.00088731 390:0.00443656 391:0.00266193 392:0.00088731 393:0 394:0.00709849 395:0.00177462 396:0.00177462 397:0.00266193 398:0.00088731 399:0.00088731 400:0 401:0.0079858 402:0 403:0 404:0.00177462 405:0.00443656 406:0.00177462 407:0.00354925 408:0.00266193 409:0.00088731 410:0.00177462 411:0 412:0.00088731 413:0.00266193 414:0.00354925 415:0.00532387 416:0.00443656 417:0.00266193 418:0.00354925 419:0 420:0 
0.904116345209696 1:0.06666667 2:0.00666667 3:0.04266667 4:0.048 5:0.05333333 6:0.07333333 7:0.012 8:0.05466667 9:0.03466667 10:0.08533333 11:0.012 12:0.10933333 13:0.036 14:0.04133333 15:0.044 16:0.07866667 17:0.07733333 18:0.04533333 19:0.01333333 20:0.06533333 21:0.00400534 22:0.01468625 23:0.00133511 24:0 25:0 26:0 27:0 28:0.00133511 29:0 30:0.00133511 31:0.00133511 32:0.00133511 33:0.00267023 34:0.00133511 35:0 36:0 37:0 38:0 39:0 40:0 41:0.00400534 42:0 43:0.00400534 44:0 45:0.00133511 46:0.00400534 47:0.00267023 48:0 49:0 50:0 51:0.00133511 52:0.00133511 53:0.00133511 54:0 55:0.00133511 56:0.00934579 57:0 58:0 59:0.01735648 60:0.00133511 61:0 62:0.00133511 63:0.00267023 64:0.00801068 65:0.00133511 66:0.00267023 67:0 68:0.00667557 69:0.00801068 70:0.00133511 71:0.00133511 72:0.00534045 73:0 74:0.00400534 75:0 76:0 77:0 78:0.00267023 79:0.00267023 80:0 81:0 82:0 83:0.00133511 84:0.00400534 85:0.00801068 86:0 87:0.00267023 88:0.00267023 89:0.01068091 90:0.00133511 91:0 92:0.00267023 93:0 94:0 95:0.00267023 96:0.00534045 97:0 98:0.00534045 99:0 100:0.00133511 101:0 102:0.00534045 103:0 104:0.00267023 105:0.00133511 106:0.00267023 107:0.00133511 108:0.00267023 109:0.00133511 110:0.00267023 111:0 112:0.00267023 113:0.00400534 114:0.00534045 115:0.00400534 116:0.00667557 117:0.00934579 118:0 119:0.00934579 120:0.00400534 121:0.00133511 122:0.00133511 123:0.00133511 124:0.00801068 125:0 126:0.00267023 127:0.00267023 128:0 129:0 130:0.00133511 131:0.00133511 132:0.00534045 133:0.00133511 134:0 135:0.01201602 136:0.00133511 137:0 138:0.00133511 139:0 140:0.00133511 141:0 142:0.00133511 143:0.00133511 144:0.00133511 145:0.00267023 146:0.00267023 147:0.00534045 148:0.00400534 149:0.00400534 150:0.00667557 151:0 152:0.00400534 153:0 154:0 155:0.00400534 156:0.00934579 157:0.00400534 158:0 159:0.00133511 160:0.00267023 161:0 162:0 163:0 164:0.00400534 165:0 166:0 167:0 168:0.00133511 169:0 170:0.00133511 171:0.00267023 172:0 173:0.00267023 174:0.00267023 175:0 176:0 177:0 178:0 179:0 180:0.00267023 181:0.00133511 182:0.00133511 183:0 184:0.00534045 185:0.00267023 186:0 187:0 188:0.00267023 189:0.00534045 190:0 191:0.00267023 192:0 193:0.00400534 194:0.00133511 195:0.00667557 196:0.00667557 197:0.00133511 198:0.00534045 199:0.00801068 200:0.00133511 201:0 202:0.01068091 203:0.00534045 204:0.00133511 205:0.00267023 206:0.00133511 207:0.00267023 208:0.00534045 209:0.00267023 210:0.00267023 211:0 212:0.00133511 213:0.00667557 214:0.00400534 215:0.01201602 216:0 217:0.00801068 218:0.00133511 219:0 220:0.00133511 221:0.00267023 222:0.00133511 223:0.00267023 224:0.00267023 225:0.00267023 226:0.00267023 227:0.00267023 228:0.00133511 229:0.00400534 230:0.00267023 231:0.00133511 232:0.00934579 233:0 234:0 235:0.00133511 236:0.00267023 237:0.00400534 238:0.00400534 239:0 240:0 241:0.00534045 242:0.00667557 243:0.00133511 244:0 245:0.00133511 246:0.00400534 247:0.00133511 248:0.00400534 249:0.00267023 250:0.00534045 251:0 252:0 253:0.00133511 254:0.00267023 255:0.00133511 256:0.00133511 257:0.00534045 258:0.00400534 259:0.00534045 260:0.00534045 261:0.00400534 262:0.00267023 263:0.00133511 264:0.00400534 265:0.00133511 266:0 267:0.00133511 268:0 269:0.00133511 270:0 271:0.00400534 272:0.00133511 273:0.00133511 274:0.00400534 275:0.00267023 276:0 277:0.01068091 278:0.00534045 279:0 280:0.00400534 281:0.00400534 282:0.00133511 283:0 284:0.00400534 285:0 286:0.00133511 287:0.00534045 288:0 289:0.00801068 290:0 291:0 292:0.00133511 293:0.00267023 294:0.00267023 295:0.00267023 296:0.00267023 297:0.00267023 298:0.00400534 299:0.01068091 300:0 301:0.00400534 302:0.01468625 303:0.00267023 304:0.00267023 305:0 306:0 307:0 308:0.00267023 309:0 310:0 311:0.00267023 312:0 313:0.00801068 314:0 315:0.00133511 316:0 317:0.00400534 318:0.00133511 319:0.00133511 320:0 321:0.00133511 322:0.00267023 323:0.00267023 324:0.0200267 325:0.00267023 326:0.00267023 327:0.00133511 328:0 329:0 330:0.00400534 331:0 332:0.00934579 333:0.00667557 334:0.00801068 335:0 336:0 337:0 338:0 339:0.00133511 340:0 341:0 342:0 343:0.00267023 344:0 345:0.00667557 346:0.00267023 347:0 348:0.00133511 349:0.00267023 350:0 351:0 352:0 353:0.00801068 354:0.01068091 355:0 356:0.00133511 357:0.00133511 358:0.00400534 359:0 360:0.00133511 361:0.00667557 362:0.00133511 363:0.00934579 364:0.00133511 365:0.00667557 366:0 367:0 368:0 369:0.00133511 370:0 371:0.00801068 372:0 373:0 374:0.00267023 375:0.00133511 376:0.00133511 377:0 378:0.00267023 379:0.00133511 380:0.00133511 381:0.00267023 382:0.00133511 383:0.01068091 384:0 385:0 386:0 387:0.00667557 388:0.00267023 389:0.00133511 390:0.00400534 391:0.00534045 392:0 393:0 394:0.00267023 395:0 396:0 397:0 398:0.00400534 399:0.00267023 400:0 401:0.00801068 402:0.00267023 403:0 404:0.00667557 405:0.00934579 406:0 407:0.00667557 408:0.01602136 409:0 410:0.00400534 411:0 412:0.00133511 413:0.00133511 414:0.00267023 415:0 416:0.00267023 417:0 418:0.00534045 419:0.00133511 420:0 
5.457359089869354 1:0.05263158 2:0.0170697 3:0.04409673 4:0.05405405 5:0.04267425 6:0.06970128 7:0.01422475 8:0.05263158 9:0.056899 10:0.10099573 11:0.01280228 12:0.07539118 13:0.0512091 14:0.02560455 15:0.04409673 16:0.07254623 17:0.06827881 18:0.05974395 19:0.01991465 20:0.06543385 21:0.0042735 22:0.00569801 23:0 24:0.002849 25:0 26:0.0042735 27:0.002849 28:0 29:0.0014245 30:0.0014245 31:0.002849 32:0 33:0.00569801 34:0.0042735 35:0 36:0.0042735 37:0.0014245 38:0 39:0.0014245 40:0 41:0.002849 42:0.0014245 43:0.0014245 44:0 45:0.00569801 46:0.00997151 47:0.002849 48:0.002849 49:0 50:0.0014245 51:0 52:0.00854701 53:0.0014245 54:0 55:0 56:0.00569801 57:0 58:0 59:0.00569801 60:0 61:0 62:0.0014245 63:0 64:0.00569801 65:0 66:0.002849 67:0 68:0.00569801 69:0.0042735 70:0 71:0.002849 72:0.00712251 73:0 74:0.002849 75:0 76:0.002849 77:0.0014245 78:0 79:0.0042735 80:0.0014245 81:0 82:0 83:0.002849 84:0 85:0.00997151 86:0.0014245 87:0.002849 88:0.0014245 89:0.002849 90:0.0042735 91:0 92:0.0014245 93:0.0014245 94:0.01282051 95:0.0014245 96:0.0042735 97:0 98:0.0042735 99:0 100:0.0042735 101:0 102:0.002849 103:0.0014245 104:0.00712251 105:0.002849 106:0 107:0 108:0.002849 109:0.0014245 110:0.0014245 111:0.0042735 112:0.0042735 113:0 114:0.0042735 115:0.0014245 116:0.002849 117:0.00712251 118:0 119:0.00569801 120:0.00854701 121:0.0014245 122:0 123:0.00997151 124:0.0014245 125:0 126:0.00712251 127:0.002849 128:0.002849 129:0 130:0.0014245 131:0.00569801 132:0.00569801 133:0.002849 134:0 135:0.002849 136:0.0014245 137:0 138:0.002849 139:0 140:0.0014245 141:0 142:0.0042735 143:0.002849 144:0.0042735 145:0.0042735 146:0.0014245 147:0.0014245 148:0.0042735 149:0.0042735 150:0.00997151 151:0 152:0.0014245 153:0 154:0.0014245 155:0.0014245 156:0 157:0.00712251 158:0.0014245 159:0.002849 160:0.0014245 161:0.0014245 162:0.0042735 163:0.0014245 164:0.00569801 165:0.0042735 166:0.002849 167:0.0014245 168:0.0014245 169:0 170:0.00712251 171:0.002849 172:0.0014245 173:0.0014245 174:0.0042735 175:0 176:0 177:0 178:0 179:0.0042735 180:0.002849 181:0.002849 182:0.002849 183:0.0042735 184:0.00569801 185:0 186:0.002849 187:0.0014245 188:0.0042735 189:0.0014245 190:0 191:0.0042735 192:0.0014245 193:0.0042735 194:0 195:0.002849 196:0.002849 197:0.0014245 198:0.00569801 199:0.0014245 200:0 201:0.002849 202:0.0014245 203:0.00569801 204:0.0014245 205:0.00997151 206:0 207:0.002849 208:0.00997151 209:0.00569801 210:0.0014245 211:0.0014245 212:0.00569801 213:0 214:0.00854701 215:0.01139601 216:0 217:0.0014245 218:0 219:0.0014245 220:0.002849 221:0.0014245 222:0 223:0 224:0.0042735 225:0.0014245 226:0.002849 227:0.002849 228:0 229:0.00997151 230:0.0042735 231:0.00569801 232:0.00569801 233:0 234:0.002849 235:0.0042735 236:0.002849 237:0.0014245 238:0.0042735 239:0 240:0.0014245 241:0.0014245 242:0.002849 243:0.0042735 244:0.0042735 245:0.002849 246:0.002849 247:0 248:0.0042735 249:0 250:0.0042735 251:0 252:0.002849 253:0.00569801 254:0.0014245 255:0.0014245 256:0.0042735 257:0.002849 258:0.0014245 259:0.00997151 260:0.0014245 261:0.0042735 262:0.0014245 263:0.0042735 264:0.0042735 265:0.002849 266:0 267:0.0014245 268:0 269:0.0014245 270:0 271:0.00712251 272:0 273:0.002849 274:0.0014245 275:0.002849 276:0.0042735 277:0.00854701 278:0.0042735 279:0.0014245 280:0.0014245 281:0.0014245 282:0.002849 283:0.0014245 284:0.0014245 285:0.0014245 286:0 287:0.002849 288:0 289:0.002849 290:0 291:0 292:0.0014245 293:0.0014245 294:0.0014245 295:0.0042735 296:0.0014245 297:0.0014245 298:0.0014245 299:0.002849 300:0 301:0.00712251 302:0.00712251 303:0 304:0 305:0.0014245 306:0 307:0.0042735 308:0 309:0 310:0 311:0 312:0 313:0.002849 314:0 315:0.0014245 316:0.0042735 317:0.0014245 318:0 319:0 320:0.002849 321:0.0042735 322:0 323:0 324:0.01282051 325:0.0042735 326:0.0042735 327:0.002849 328:0.002849 329:0.0014245 330:0 331:0.0014245 332:0.00712251 333:0.002849 334:0.0014245 335:0 336:0.0014245 337:0.0042735 338:0 339:0 340:0.0042735 341:0.0014245 342:0.0014245 343:0 344:0.002849 345:0.00712251 346:0.0042735 347:0.002849 348:0 349:0 350:0.002849 351:0.0014245 352:0 353:0.002849 354:0.01139601 355:0 356:0.002849 357:0.002849 358:0.0042735 359:0 360:0 361:0.00712251 362:0 363:0.0014245 364:0.0014245 365:0.0042735 366:0 367:0.00569801 368:0.0014245 369:0.00569801 370:0.0014245 371:0.002849 372:0.0014245 373:0.002849 374:0 375:0.002849 376:0.0042735 377:0.0014245 378:0.0042735 379:0.002849 380:0.0014245 381:0.00569801 382:0 383:0.0014245 384:0 385:0 386:0 387:0.00569801 388:0.0014245 389:0.002849 390:0.002849 391:0.002849 392:0 393:0 394:0.0014245 395:0 396:0.002849 397:0 398:0.0014245 399:0.0014245 400:0 401:0.0042735 402:0.00712251 403:0 404:0 405:0.00569801 406:0.0014245 407:0.00569801 408:0.00854701 409:0.0014245 410:0 411:0 412:0.0014245 413:0.00569801 414:0.0014245 415:0.0014245 416:0.00569801 417:0.002849 418:0.002849 419:0 420:0 
